/*!
 * The following copyright notice may not be removed under any circumstances.
 * 
 * Copyright:
 * © 2008 The Monotype Corporation. All Rights Reserved.
 * 
 * Trademark:
 * Arial is a trademark of The Monotype Corporation in the United States and/or
 * other countries.
 * 
 * Manufacturer:
 * The Monotype Corporation
 * 
 * Designer:
 * Monotype Type Drawing Office - Robin Nicholas, Patricia Saunders 1982
 */
Cufon.registerFont({"w":1139,"face":{"font-family":"arial","font-weight":400,"font-stretch":"normal","units-per-em":"2048","panose-1":"2 11 6 4 2 2 2 2 2 4","ascent":"1638","descent":"-410","x-height":"24","bbox":"-94 -1601 2005 432.648","underline-thickness":"150","underline-position":"-142","unicode-range":"U+0020-U+007E"},"glyphs":{" ":{"w":569,"k":{"Y":37,"T":37,"A":113}},"\u00a0":{"w":569},"!":{"d":"231,-364r-55,-777r0,-325r223,0r0,325r-52,777r-116,0xm184,0r0,-205r207,0r0,205r-207,0","w":569},"\"":{"d":"144,-947r-50,-279r0,-240r205,0r0,240r-45,279r-110,0xm475,-947r-49,-279r0,-240r205,0r0,240r-48,279r-108,0","w":727},"#":{"d":"103,25r87,-426r-169,0r0,-149r199,0r74,-363r-273,0r0,-149r303,0r87,-429r150,0r-87,429r315,0r87,-429r151,0r-87,429r173,0r0,149r-203,0r-75,363r278,0r0,149r-308,0r-87,426r-150,0r86,-426r-314,0r-87,426r-150,0xm370,-550r314,0r75,-363r-315,0"},"$":{"d":"1014,-575v110,303,-103,604,-398,604r0,182r-106,0r0,-180v-271,-26,-409,-168,-437,-438r181,-34v21,185,107,296,256,320r0,-573v-134,-28,-300,-100,-360,-219v-29,-58,-46,-121,-46,-193v0,-236,153,-392,406,-409r0,-86r106,0r0,86v228,19,360,153,391,361r-186,28v-20,-136,-81,-210,-205,-237r0,519v171,42,227,60,317,143v37,34,63,77,81,126xm510,-1365v-127,16,-226,111,-226,245v0,152,87,211,226,253r0,-498xm616,-121v136,-15,247,-132,242,-284v-6,-172,-82,-207,-242,-264r0,548"},"%":{"d":"429,-716v-202,0,-310,-163,-310,-398v0,-201,106,-381,308,-377v203,4,319,159,319,388v0,223,-120,387,-317,387xm589,-1110v0,-155,-39,-257,-157,-257v-122,0,-156,106,-156,271v0,154,39,256,156,256v123,0,157,-105,157,-270xm433,54r802,-1545r146,0r-799,1545r-149,0xm1377,54v-201,0,-310,-164,-310,-398v0,-202,105,-382,309,-377v203,4,319,159,319,388v0,223,-120,387,-318,387xm1538,-340v0,-155,-39,-257,-157,-257v-123,0,-157,105,-157,271v0,153,40,256,156,256v124,0,158,-105,158,-270","w":1821},"&":{"d":"636,-1491v187,0,341,137,341,313v0,139,-92,258,-277,357r263,335v30,-59,53,-127,70,-204r187,40v-32,128,-75,233,-130,316v67,89,144,164,229,225r-121,143v-73,-47,-148,-116,-225,-207v-104,115,-228,191,-421,198v-253,9,-462,-189,-464,-429v0,-91,30,-173,88,-246v58,-73,145,-137,261,-192v-99,-121,-158,-171,-165,-322v-8,-181,171,-327,364,-327xm627,-1343v-118,0,-210,117,-153,233v29,60,90,121,133,173v119,-76,177,-101,186,-236v6,-96,-72,-170,-166,-170xm860,-315r-330,-409v-97,58,-163,112,-197,162v-78,116,-63,218,20,332v80,111,241,124,369,46v57,-35,103,-78,138,-131","w":1366},"'":{"d":"136,-947r-46,-274r0,-245r205,0r0,245r-48,274r-111,0","w":391},"(":{"d":"124,-531v5,-419,153,-682,355,-960r129,0v-146,253,-198,327,-256,585v-118,522,-5,898,256,1337r-129,0v-179,-228,-359,-574,-355,-962","w":682},")":{"d":"608,-531v5,386,-178,735,-355,962r-129,0v199,-320,299,-640,299,-961v-1,-246,-56,-478,-138,-661v-26,-60,-80,-160,-161,-300r129,0v203,280,349,539,355,960","w":682},"*":{"d":"64,-1197r46,-142v106,37,183,70,231,97v-13,-121,-19,-204,-20,-249r145,0v-2,66,-10,149,-23,248v69,-35,147,-67,236,-96r46,142v-85,28,-168,47,-249,56v41,35,98,98,172,189r-120,85v-39,-53,-84,-124,-137,-215v-49,94,-93,166,-130,215r-118,-85v77,-95,133,-158,166,-189v-86,-17,-168,-35,-245,-56","w":797},"+":{"d":"513,-237r0,-402r-399,0r0,-168r399,0r0,-399r170,0r0,399r399,0r0,168r-399,0r0,402r-170,0","w":1196},",":{"d":"182,0r0,-205r205,0v-3,139,14,301,-40,387v-28,45,-69,83,-127,108r-50,-77v80,-37,110,-96,114,-213r-102,0","w":569},"-":{"d":"65,-440r0,-181r553,0r0,181r-553,0","w":682},"\u00ad":{"d":"65,-440r0,-181r553,0r0,181r-553,0","w":682},".":{"d":"186,0r0,-205r205,0r0,205r-205,0","w":569},"\/":{"d":"0,25r425,-1516r144,0r-424,1516r-145,0","w":569},"0":{"d":"85,-723v0,-316,57,-526,213,-663v112,-98,331,-113,472,-38v126,68,196,193,238,354v49,187,40,597,-20,764v-69,190,-188,331,-425,331v-141,0,-252,-51,-333,-152v-97,-122,-145,-321,-145,-596xm270,-723v0,241,29,400,84,481v107,158,311,158,418,-1v55,-81,84,-240,84,-480v0,-241,-30,-400,-84,-481v-99,-150,-309,-160,-409,-14v-61,90,-93,254,-93,495"},"1":{"d":"223,-1104v172,-78,346,-219,424,-368r116,0r0,1472r-180,0r0,-1147v-78,77,-249,176,-360,217r0,-174","k":{"1":152}},"2":{"d":"572,-1472v324,-8,547,272,421,580v-24,57,-66,114,-119,179v-67,82,-406,361,-486,443v-31,32,-56,64,-76,97r719,0r0,173r-969,0v3,-145,63,-224,140,-320v53,-65,132,-138,235,-222v159,-131,267,-234,323,-310v56,-76,84,-149,84,-217v1,-146,-122,-254,-276,-254v-175,0,-289,116,-287,294r-185,-19v22,-268,191,-417,476,-424"},"3":{"d":"1046,-433v0,259,-225,459,-494,459v-257,0,-447,-177,-466,-413r180,-24v34,174,112,282,287,288v166,6,302,-138,302,-306v0,-163,-124,-288,-287,-285v-34,0,-76,7,-127,20r20,-158v171,13,328,-72,328,-243v0,-132,-104,-232,-240,-229v-159,4,-244,108,-265,264r-180,-32v37,-224,194,-380,441,-380v241,0,429,147,429,381v0,148,-86,246,-202,297v165,36,274,165,274,361"},"4":{"d":"662,0r0,-351r-636,0r0,-165r669,-950r147,0r0,950r198,0r0,165r-198,0r0,351r-180,0xm662,-516r0,-661r-459,661r459,0"},"5":{"d":"1057,-497v0,291,-212,522,-501,522v-265,0,-450,-167,-471,-409r189,-16v22,163,118,275,282,277v182,2,310,-160,310,-358v0,-197,-123,-332,-313,-332v-122,0,-218,64,-267,142r-169,-22r142,-753r729,0r0,172r-585,0r-79,394v88,-61,180,-92,277,-92v257,0,456,209,456,475"},"6":{"d":"1045,-476v-9,286,-171,501,-459,501v-150,0,-272,-55,-367,-165v-95,-110,-142,-293,-142,-546v0,-283,52,-489,157,-618v91,-112,214,-168,369,-168v237,-1,391,148,416,365r-179,14v-27,-145,-109,-231,-248,-231v-155,0,-232,106,-285,229v-34,79,-50,192,-51,339v73,-114,192,-192,356,-195v246,-4,441,214,433,475xm576,-792v-167,-1,-296,140,-292,317v5,191,113,352,299,352v166,0,278,-154,278,-342v0,-187,-112,-326,-285,-327"},"7":{"d":"302,0v24,-494,261,-988,513,-1274r-718,0r0,-173r949,0r0,140v-192,204,-400,583,-490,904v-34,123,-59,257,-69,403r-185,0"},"8":{"d":"83,-424v1,-201,111,-329,279,-371v-133,-48,-218,-137,-220,-299v-3,-221,184,-378,421,-378v238,0,428,161,426,383v-2,156,-88,247,-216,294v164,52,274,176,276,376v3,257,-211,444,-483,444v-274,0,-484,-188,-483,-449xm565,-1324v-130,0,-239,100,-239,224v0,138,102,236,241,236v132,0,237,-99,237,-226v0,-130,-107,-234,-239,-234xm562,-717v-165,0,-297,129,-294,294v3,175,123,297,300,300v168,3,297,-126,297,-294v0,-170,-133,-300,-303,-300"},"9":{"d":"85,-977v0,-282,192,-498,461,-495v215,2,369,130,442,296v81,183,73,671,0,860v-76,196,-220,339,-464,341v-237,2,-387,-145,-412,-364r173,-16v25,144,93,232,243,232v198,0,271,-135,315,-311v21,-85,30,-163,26,-256v-64,104,-192,192,-350,193v-251,1,-434,-212,-434,-480xm563,-656v176,-1,286,-139,286,-330v0,-187,-114,-337,-281,-337v-170,0,-298,164,-298,352v0,177,125,316,293,315"},":":{"d":"185,-857r0,-205r205,0r0,205r-205,0xm185,0r0,-205r205,0r0,205r-205,0","w":569},";":{"d":"182,-857r0,-205r205,0r0,205r-205,0xm182,0r0,-205r205,0v-3,139,14,301,-40,387v-28,45,-69,83,-127,108r-50,-77v80,-37,110,-96,114,-213r-102,0","w":569},"\u037e":{"d":"182,-857r0,-205r205,0r0,205r-205,0xm182,0r0,-205r205,0v-3,139,14,301,-40,387v-28,45,-69,83,-127,108r-50,-77v80,-37,110,-96,114,-213r-102,0","w":569},"<":{"d":"112,-641r0,-168r971,-410r0,179r-770,316r770,319r0,179","w":1196},"=":{"d":"1082,-862r-968,0r0,-168r968,0r0,168xm1082,-417r-968,0r0,-168r968,0r0,168","w":1196},">":{"d":"1083,-641r-971,415r0,-179r769,-319r-769,-316r0,-179r971,410r0,168","w":1196},"?":{"d":"565,-1491v325,-10,578,280,426,577v-28,55,-89,119,-176,197v-128,116,-165,136,-170,356r-173,0v-10,-262,79,-343,230,-479v97,-87,142,-112,149,-239v7,-141,-135,-269,-283,-264v-178,6,-267,119,-293,297r-185,-22v29,-261,194,-414,475,-423xm461,0r0,-205r205,0r0,205r-205,0"},"@":{"d":"1354,4v-125,0,-185,-42,-193,-167v-72,83,-174,166,-307,166v-229,0,-360,-207,-362,-449v-2,-224,140,-467,284,-558v82,-51,159,-80,235,-80v142,0,240,80,302,184r34,-155r179,0r-144,671v-20,93,-30,145,-30,155v-1,36,33,66,70,66v35,0,81,-21,139,-61v136,-92,247,-281,247,-492v0,-394,-312,-631,-715,-631v-506,0,-828,360,-834,862v-6,514,350,762,861,768v327,4,576,-125,704,-302r181,0v-82,160,-274,316,-470,387v-222,81,-582,80,-821,6v-361,-112,-603,-395,-603,-843v0,-390,200,-721,447,-880v257,-165,700,-193,990,-43v222,115,408,360,408,679v0,193,-68,365,-204,515v-121,135,-254,202,-398,202xm1256,-649v9,-209,-173,-354,-352,-253v-129,73,-219,270,-227,468v-8,203,152,357,332,256v139,-78,238,-257,247,-471","w":2079},"A":{"d":"-3,0r563,-1466r209,0r600,1466r-221,0r-171,-444r-613,0r-161,444r-206,0xm420,-602r497,0r-153,-406v-47,-123,-81,-225,-104,-304v-51,254,-160,480,-240,710","w":1366,"k":{"y":37,"w":37,"v":37,"Y":152,"W":76,"V":152,"T":152," ":113}},"B":{"d":"981,-780v160,45,276,166,276,355v0,305,-215,425,-548,425r-559,0r0,-1466r550,0v217,0,346,53,428,182v39,61,58,126,58,193v0,150,-88,256,-205,311xm344,-850v271,-18,651,83,651,-218v0,-101,-53,-180,-135,-204v-106,-31,-360,-18,-516,-21r0,443xm344,-173r365,0v126,1,174,-10,244,-47v97,-50,140,-242,61,-348v-68,-91,-160,-109,-331,-109r-339,0r0,504","w":1366},"C":{"d":"775,-141v242,0,385,-152,429,-373r194,49v-71,291,-272,490,-607,490v-328,0,-510,-141,-611,-376v-52,-122,-78,-253,-78,-393v1,-452,256,-747,692,-747v310,0,508,174,579,427r-191,45v-61,-191,-167,-303,-392,-306v-338,-4,-488,250,-488,580v0,246,69,444,224,535v77,46,160,69,249,69","w":1479},"D":{"d":"158,0r0,-1466v243,5,570,-23,766,21v302,68,444,334,446,704v2,301,-99,524,-272,643v-99,68,-240,98,-411,98r-529,0xm665,-173v389,13,496,-206,505,-571v6,-271,-91,-448,-259,-519v-112,-47,-385,-27,-559,-30r0,1120r313,0","w":1479},"E":{"d":"162,0r0,-1466r1060,0r0,173r-866,0r0,449r811,0r0,172r-811,0r0,499r900,0r0,173r-1094,0","w":1366},"F":{"d":"168,0r0,-1466r989,0r0,173r-795,0r0,454r688,0r0,173r-688,0r0,666r-194,0","w":1251,"k":{"A":113,".":227,",":227}},"G":{"d":"847,-150v159,4,347,-80,428,-152r0,-273r-431,0r0,-172r621,-1r0,544v-164,130,-349,229,-607,229v-458,0,-749,-290,-749,-751v0,-455,265,-771,734,-765v335,5,536,151,600,435r-175,48v-52,-206,-181,-317,-424,-317v-366,0,-528,239,-535,587v-7,369,195,578,538,588","w":1593},"H":{"d":"164,0r0,-1466r194,0r0,602r762,0r0,-602r194,0r0,1466r-194,0r0,-691r-762,0r0,691r-194,0","w":1479},"I":{"d":"191,0r0,-1466r194,0r0,1466r-194,0","w":569},"J":{"d":"865,-467v8,324,-119,492,-412,492v-267,0,-402,-161,-394,-441r175,-24v8,191,54,292,218,292v172,0,219,-104,219,-308r0,-1010r194,0r0,999","w":1024},"K":{"d":"150,0r0,-1466r194,0r0,727r728,-727r263,0r-615,594r642,872r-256,0r-522,-742r-240,234r0,508r-194,0","w":1366},"L":{"d":"150,0r0,-1466r194,0r0,1293r722,0r0,173r-916,0","k":{"y":76,"Y":152,"W":152,"V":152,"T":152," ":76}},"M":{"d":"152,0r0,-1466r292,0r347,1038r70,217r78,-235r351,-1020r261,0r0,1466r-187,0r0,-1227r-426,1227r-175,0r-424,-1248r0,1248r-187,0","w":1706},"N":{"d":"156,0r0,-1466r199,0r770,1151r0,-1151r186,0r0,1466r-199,0r-770,-1152r0,1152r-186,0","w":1479},"O":{"d":"800,25v-432,0,-691,-312,-701,-739v-10,-457,272,-778,702,-778v440,0,700,311,700,761v0,448,-266,756,-701,756xm1301,-732v-5,-346,-170,-593,-499,-593v-137,0,-255,47,-354,141v-99,94,-149,252,-149,473v0,327,198,570,500,570v314,0,507,-246,502,-591","w":1593},"P":{"d":"158,0r0,-1466r553,0v282,-4,433,45,521,224v85,172,46,390,-74,516v-81,85,-223,130,-430,130r-376,0r0,596r-194,0xm731,-769v224,1,341,-72,346,-267v3,-123,-70,-223,-169,-244v-130,-28,-390,-9,-556,-13r0,524r379,0","w":1366,"k":{"A":152,".":264,",":264," ":37}},"Q":{"d":"1490,-734v0,258,-82,444,-221,577v90,62,173,107,249,136r-57,135v-105,-38,-210,-98,-315,-180v-109,61,-229,91,-360,91v-436,0,-698,-313,-698,-758v0,-446,259,-759,702,-759v439,0,700,310,700,758xm288,-733v0,350,186,588,503,592v69,0,135,-13,196,-39v-61,-39,-125,-67,-192,-84r47,-141v112,31,204,78,277,140v114,-104,171,-260,171,-469v0,-345,-171,-591,-499,-591v-317,0,-503,235,-503,592","w":1593},"R":{"d":"1333,-1066v0,241,-167,370,-413,399v140,66,197,141,278,268r255,399r-244,0r-194,-305v-89,-134,-139,-229,-239,-300v-59,-41,-91,-47,-196,-46r-225,0r0,651r-194,0r0,-1466r650,0v249,2,369,33,461,179v42,66,61,140,61,221xm1133,-1066v0,-161,-124,-238,-314,-238r-464,0r0,485r417,0v218,5,361,-60,361,-247","w":1479,"k":{"Y":37,"W":37,"V":37,"T":37}},"S":{"d":"1259,-414v0,283,-242,438,-542,439v-263,1,-441,-76,-545,-233v-51,-78,-77,-165,-80,-263r183,-16v20,231,188,338,433,338v193,0,364,-71,364,-249v0,-117,-71,-166,-172,-207v-76,-31,-474,-121,-544,-163v-117,-70,-208,-159,-208,-319v0,-269,232,-404,516,-404v315,0,533,145,551,438r-186,14v-22,-191,-138,-282,-357,-281v-117,0,-201,23,-256,64v-94,71,-104,202,-24,286v61,64,535,156,617,198v144,75,250,170,250,358","w":1366},"T":{"d":"531,0r0,-1293r-483,0r0,-173r1162,0r0,173r-485,0r0,1293r-194,0","w":1251,"k":{"y":113,"w":113,"u":76,"s":227,"r":76,"o":227,"i":76,"e":227,"c":227,"a":227,"O":37,"A":152,";":227,":":227,".":227,"-":113,",":227," ":37}},"U":{"d":"724,-150v317,0,396,-126,396,-470r0,-846r194,0r0,847v-3,294,-51,449,-230,563v-87,54,-202,81,-343,81v-417,0,-580,-207,-580,-644r0,-847r194,0r0,846v2,232,24,341,157,421v57,34,129,49,212,49","w":1479},"V":{"d":"577,0r-568,-1466r210,0r381,1065v31,85,56,165,77,240v23,-80,49,-160,79,-240r396,-1065r198,0r-574,1466r-199,0","w":1366,"k":{"y":76,"u":76,"r":76,"o":113,"i":37,"e":113,"a":152,"A":152,";":76,":":76,".":188,"-":113,",":188}},"W":{"d":"414,0r-389,-1466r199,0r223,961v24,101,45,201,62,300v37,-157,59,-247,66,-271r279,-990r234,0r210,742v53,184,91,357,114,519v19,-93,44,-199,73,-319r230,-942r195,0r-402,1466r-187,0r-355,-1289v-15,67,-30,125,-43,172r-311,1117r-198,0","w":1933,"k":{"y":18,"u":37,"r":37,"o":37,"e":37,"a":76,"A":76,";":37,":":37,".":113,"-":37,",":113}},"X":{"d":"9,0r567,-764r-500,-702r231,0r266,376v55,78,95,138,118,180v122,-189,278,-374,411,-556r211,0r-515,691r555,775r-240,0r-369,-523v-21,-30,-42,-63,-64,-98v-143,229,-288,406,-438,621r-233,0","w":1366},"Y":{"d":"571,0r0,-621r-565,-845r236,0r289,442v53,83,103,165,149,248v44,-77,97,-163,160,-259r284,-431r226,0r-585,845r0,621r-194,0","w":1366,"k":{"v":113,"u":113,"q":188,"p":152,"o":188,"i":76,"e":188,"a":152,"A":152,";":133,":":113,".":264,"-":188,",":264," ":37}},"Z":{"d":"41,0r0,-180r751,-939v53,-67,104,-125,152,-174r-818,0r0,-173r1050,0r0,173r-823,1017r-89,103r936,0r0,173r-1159,0","w":1251},"[":{"d":"139,407r0,-1873r397,0r0,149r-217,0r0,1575r217,0r0,149r-397,0","w":569},"\\":{"d":"425,25r-425,-1516r145,0r424,1516r-144,0","w":569},"]":{"d":"436,407r-397,0r0,-149r217,0r0,-1575r-217,0r0,-149r397,0r0,1873","w":569},"^":{"d":"239,-690r-185,0r353,-801r145,0r355,801r-181,0r-247,-597","w":961},"_":{"d":"-31,407r0,-130r1193,0r0,130r-1193,0"},"`":{"d":"465,-1194r-145,0r-231,-280r241,0","w":682},"a":{"d":"995,-445v6,270,-11,308,57,445r-188,0v-19,-37,-31,-81,-36,-131v-115,96,-212,150,-391,155v-213,5,-363,-111,-363,-304v0,-172,117,-269,258,-305v119,-31,406,-52,481,-89v18,-197,-77,-263,-255,-263v-179,0,-237,55,-277,202r-176,-24v41,-230,210,-327,479,-327v221,0,367,58,402,235v17,88,7,287,9,406xm291,-370v-76,130,31,253,189,253v143,0,256,-71,304,-170v24,-50,31,-154,29,-246v-75,43,-348,64,-451,104v-31,12,-56,33,-71,59"},"b":{"d":"1055,-547v9,323,-178,571,-459,571v-125,0,-224,-52,-295,-157r0,133r-167,0r0,-1466r180,0r0,523v76,-95,173,-143,291,-143v304,0,441,229,450,539xm589,-938v-184,0,-290,178,-290,399v0,127,17,219,52,276v57,93,133,139,230,139v187,0,290,-179,290,-408v0,-139,-28,-241,-83,-307v-55,-66,-121,-99,-199,-99"},"c":{"d":"561,-124v161,0,247,-105,267,-265r177,23v-32,227,-196,390,-442,390v-307,0,-483,-221,-483,-551v0,-335,165,-555,484,-559v238,-3,386,130,424,336r-175,27v-28,-126,-104,-215,-242,-215v-210,0,-306,160,-306,406v0,248,88,408,296,408","w":1024},"d":{"d":"519,-1086v134,-2,235,65,293,146r0,-526r179,0r0,1466r-167,0r0,-134v-100,176,-354,204,-530,88v-137,-90,-224,-262,-224,-484v1,-313,147,-551,449,-556xm536,-937v-194,0,-281,169,-281,407v0,136,29,238,86,305v57,67,125,101,203,101v186,0,283,-165,283,-391v0,-145,-28,-252,-84,-320v-56,-68,-125,-102,-207,-102"},"e":{"d":"582,-124v156,0,233,-86,280,-218r186,23v-55,208,-211,343,-467,343v-319,1,-506,-215,-506,-546v0,-333,186,-564,496,-564v316,0,506,247,482,601r-792,0v7,209,124,361,321,361xm864,-633v-10,-189,-122,-302,-291,-305v-172,-3,-295,133,-302,305r593,0"},"f":{"d":"507,-1326v-117,2,-149,43,-150,166r0,98r207,0r0,140r-207,0r0,922r-179,0r0,-922r-159,0r0,-140r159,0v0,-90,-3,-219,19,-272v40,-99,127,-159,275,-157v51,0,107,6,168,18r-27,157v-37,-7,-73,-10,-106,-10","w":569,"k":{"f":37}},"g":{"d":"66,-537v4,-308,152,-549,460,-549v125,0,229,51,310,152r0,-128r166,0r0,918v-2,301,-39,414,-210,515v-152,90,-446,77,-577,-25v-76,-59,-116,-143,-113,-258r175,26v16,124,109,166,244,168v163,2,250,-67,285,-190v9,-37,14,-114,13,-231v-79,93,-177,139,-294,139v-291,0,-463,-252,-459,-537xm539,-937v-186,0,-288,166,-288,387v0,240,92,401,291,401v195,0,292,-161,292,-395v0,-226,-106,-393,-295,-393"},"h":{"d":"596,-931v-191,0,-281,127,-281,350r0,581r-180,0r0,-1466r180,0r0,526v84,-97,190,-146,318,-146v253,0,367,130,367,413r0,673r-180,0r0,-673v1,-168,-69,-258,-224,-258"},"i":{"d":"136,-1259r0,-207r180,0r0,207r-180,0xm136,0r0,-1062r180,0r0,1062r-180,0","w":455},"j":{"d":"134,-1257r0,-209r180,0r0,209r-180,0xm25,273v109,0,109,-67,109,-219r0,-1116r180,0r0,1120v0,131,-20,220,-51,273v-60,101,-221,120,-357,81r34,-153v36,9,64,14,85,14","w":455},"k":{"d":"136,0r0,-1466r180,0r0,836r426,-432r233,0r-406,394r447,668r-222,0r-351,-543r-127,122r0,421r-180,0","w":1024},"l":{"d":"131,0r0,-1466r180,0r0,1466r-180,0","w":455},"m":{"d":"766,-690v-1,-150,-45,-240,-188,-240v-198,0,-263,145,-263,379r0,551r-180,0r0,-1062r161,0r0,149v61,-96,172,-173,322,-173v158,-1,259,70,300,186v84,-124,193,-186,328,-186v220,0,328,125,328,357r0,729r-179,0r0,-669v-2,-131,-9,-184,-81,-232v-30,-20,-67,-29,-108,-29v-169,0,-260,118,-260,313r0,617r-180,0r0,-690","w":1706},"n":{"d":"597,-930v-188,0,-282,115,-282,350r0,580r-180,0r0,-1062r162,0r0,151v100,-163,316,-220,515,-141v102,41,151,112,176,224v7,33,10,92,10,175r0,653r-180,0r0,-646v7,-189,-58,-284,-221,-284"},"o":{"d":"566,24v-313,-1,-498,-220,-498,-555v0,-337,186,-552,498,-555v302,-3,497,222,497,540v0,266,-77,412,-241,505v-78,44,-163,65,-256,65xm566,-937v-205,0,-313,167,-313,406v0,240,107,407,313,407v206,0,312,-170,312,-413v0,-232,-111,-400,-312,-400"},"p":{"d":"594,24v-126,4,-222,-62,-279,-134r0,517r-180,0r0,-1469r164,0r0,138v72,-98,152,-162,308,-162v301,0,448,240,450,547v2,317,-166,554,-463,563xm590,-945v-184,0,-292,191,-292,420v0,137,28,238,83,303v55,65,122,98,201,98v194,0,291,-177,291,-416v0,-135,-27,-237,-83,-304v-56,-67,-123,-101,-200,-101"},"q":{"d":"72,-541v6,-309,152,-545,448,-545v131,0,235,55,310,166r0,-142r162,0r0,1469r-180,0r0,-520v-50,73,-159,138,-278,137v-276,-3,-468,-252,-462,-565xm537,-944v-190,0,-280,174,-280,410v0,137,29,240,86,308v57,68,126,102,206,102v183,0,281,-169,281,-394v0,-141,-30,-248,-88,-319v-58,-71,-126,-107,-205,-107"},"r":{"d":"516,-900v-165,0,-203,175,-203,344r0,556r-180,0r0,-1062r162,0r0,161v69,-116,99,-185,230,-185v61,0,122,19,185,58r-62,167v-44,-26,-88,-39,-132,-39","w":682,"k":{".":113,",":113}},"s":{"d":"945,-312v0,220,-192,335,-428,336v-274,1,-411,-113,-454,-341r178,-28v20,142,111,221,275,221v139,0,244,-58,244,-169v0,-41,-17,-73,-53,-96v-66,-42,-410,-111,-459,-147v-90,-41,-155,-125,-155,-244v0,-211,169,-306,391,-306v237,0,395,83,421,298r-176,24v-17,-113,-97,-174,-232,-174v-133,0,-230,38,-230,137v0,59,40,90,91,111v18,7,71,22,159,46v127,34,217,62,267,84v94,41,161,118,161,248","w":1024},"t":{"d":"347,-301v-2,111,11,147,102,147v20,0,46,-2,79,-7r26,159v-154,37,-322,13,-364,-96v-13,-34,-22,-105,-22,-213r0,-611r-132,0r0,-140r132,0r0,-263r179,-108r0,371r181,0r0,140r-181,0r0,621","w":569},"u":{"d":"831,0r0,-156v-109,167,-313,230,-513,144v-150,-64,-187,-169,-187,-392r0,-658r180,0r0,589v1,177,-1,233,83,301v74,60,204,52,288,0v102,-63,130,-148,130,-321r0,-569r180,0r0,1062r-161,0"},"v":{"d":"430,0r-404,-1062r190,0r228,636v25,69,47,140,68,214v16,-56,38,-123,67,-202r236,-648r185,0r-402,1062r-168,0","w":1024,"k":{".":152,",":152}},"w":{"d":"331,0r-325,-1062r186,0r232,841v3,-11,19,-85,55,-219r169,-622r185,0r212,819r243,-819r175,0r-332,1062r-187,0r-169,-636r-41,-181r-215,817r-188,0","w":1479,"k":{".":113,",":113}},"x":{"d":"15,0r388,-552r-359,-510r225,0r163,249v31,47,55,87,74,119r260,-368r215,0r-367,500r395,562r-221,0r-276,-419r-279,419r-218,0","w":1024},"y":{"d":"127,409r-20,-169v109,34,217,11,258,-60v11,-18,49,-117,71,-178r-403,-1064r194,0r221,615v29,78,54,160,77,246v82,-303,202,-574,301,-861r180,0r-404,1080v-43,117,-79,196,-101,241v-64,132,-198,211,-374,150","w":1024,"k":{".":152,",":152}},"z":{"d":"40,0r0,-146r676,-776v-77,4,-144,6,-203,6r-433,0r0,-146r868,0r0,119r-575,674r-111,123v236,-17,472,-6,718,-9r0,155r-940,0","w":1024},"{":{"d":"224,-530v166,77,208,186,209,450v0,130,1,207,4,232v10,111,69,124,199,122r0,157v-218,13,-325,-50,-358,-221v-16,-84,-10,-430,-31,-508v-23,-88,-85,-149,-190,-151r0,-163v105,-2,168,-61,190,-150v33,-136,0,-486,57,-591v60,-109,150,-147,332,-138r0,157v-166,-1,-203,27,-203,205v0,175,-4,285,-11,331v-27,151,-76,207,-198,268","w":684},"|":{"d":"188,431r0,-1922r157,0r0,1922r-157,0","w":532},"}":{"d":"459,-530v-169,-88,-209,-178,-209,-451v0,-130,-3,-208,-5,-233v-10,-110,-70,-122,-198,-120r0,-157v218,-14,326,50,359,221v16,84,9,431,30,508v24,88,85,148,190,150r0,163v-105,2,-168,63,-190,151v-33,135,2,485,-56,590v-60,109,-151,148,-333,139r0,-157v166,1,203,-27,203,-206v0,-167,3,-272,9,-317v22,-148,81,-230,200,-281","w":684},"~":{"d":"348,-693v-130,0,-168,53,-261,136r0,-205v94,-108,237,-140,404,-102v83,19,244,116,361,116v105,0,200,-73,258,-137r0,212v-76,70,-147,108,-277,114v-164,8,-329,-134,-485,-134","w":1196}}});
/*!
 * The following copyright notice may not be removed under any circumstances.
 * 
 * Copyright:
 * © 2008 The Monotype Corporation. All Rights Reserved.
 * 
 * Trademark:
 * Arial is a trademark of The Monotype Corporation in the United States and/or
 * other countries.
 * 
 * Manufacturer:
 * The Monotype Corporation
 * 
 * Designer:
 * Monotype Type Drawing Office - Robin Nicholas, Patricia Saunders 1982
 */
Cufon.registerFont({"w":1139,"face":{"font-family":"arial","font-weight":700,"font-stretch":"normal","units-per-em":"2048","panose-1":"2 11 7 4 2 2 2 2 2 4","ascent":"1638","descent":"-410","x-height":"24","bbox":"-94 -1584 1990 432.065","underline-thickness":"215","underline-position":"-110","unicode-range":"U+0020-U+007E"},"glyphs":{" ":{"w":569,"k":{"Y":37,"A":76}},"\u00a0":{"w":569},"!":{"d":"257,-378r-73,-744r0,-344r304,0r0,344r-72,744r-159,0xm196,0r0,-281r281,0r0,281r-281,0","w":682},"\"":{"d":"165,-945r-53,-273r0,-248r306,0r0,248r-46,273r-207,0xm616,-945r-53,-273r0,-248r306,0r0,248r-46,273r-207,0","w":971},"#":{"d":"154,-365r-136,0r0,-220r180,0r60,-295r-240,0r0,-221r285,0r79,-390r224,0r-79,390r221,0r77,-390r232,0r-80,390r138,0r0,221r-183,0r-60,295r243,0r0,220r-288,0r-79,390r-223,0r77,-390r-222,0r-79,390r-226,0xm483,-880r-59,295r222,0r58,-295r-221,0"},"$":{"d":"1048,-439v-1,256,-174,428,-414,457r0,187r-145,0r0,-182v-243,-31,-383,-185,-419,-434r261,-28v18,100,82,185,158,222r0,-419v-228,-64,-374,-190,-379,-445v-4,-226,164,-388,379,-404r0,-99r145,0r0,99v211,24,338,148,373,348r-253,33v-15,-79,-55,-132,-120,-160r0,391v160,43,269,100,327,169v58,69,87,157,87,265xm489,-1267v-102,26,-173,171,-97,273v21,30,54,54,97,73r0,-346xm634,-203v134,-12,225,-199,130,-315v-26,-32,-70,-58,-130,-75r0,390"},"%":{"d":"415,-717v-222,0,-326,-144,-326,-387v0,-240,104,-387,321,-387v222,0,326,144,326,387v0,240,-104,387,-321,387xm341,-1298v-40,52,-40,332,0,384v34,45,105,45,139,0v39,-51,38,-332,0,-383v-34,-45,-104,-46,-139,-1xm624,56r-208,0r781,-1547r202,0xm1404,59v-222,0,-326,-145,-326,-388v0,-241,104,-387,323,-387v220,0,324,146,324,387v0,241,-103,388,-321,388xm1330,-522v-44,48,-44,335,0,383v29,49,104,46,138,1v39,-52,40,-332,1,-384v-33,-45,-110,-48,-139,0","w":1821},"&":{"d":"1215,-345v46,46,176,139,231,166r-170,217v-83,-41,-163,-97,-240,-168v-113,100,-226,152,-427,156v-295,6,-519,-161,-519,-428v0,-233,151,-356,335,-449v-78,-96,-151,-186,-151,-322v0,-200,179,-318,410,-318v229,0,401,130,404,334v0,59,-18,116,-53,169v-35,53,-107,114,-214,181r204,269v24,-43,45,-98,62,-167r254,58v-42,146,-64,213,-126,302xm691,-1293v-78,0,-141,45,-143,111v-3,64,91,156,133,206v57,-43,163,-116,160,-187v-3,-76,-66,-130,-150,-130xm378,-412v-4,123,92,210,219,206v118,-3,180,-47,260,-112r-286,-353v-105,52,-189,132,-193,259","w":1479},"'":{"d":"145,-945r-53,-273r0,-248r306,0r0,248r-46,273r-207,0","w":487},"(":{"d":"616,-1491v-153,350,-240,546,-240,966v0,401,91,650,237,956r-193,0v-174,-260,-309,-583,-313,-962v-4,-389,147,-716,317,-960r192,0","w":682},")":{"d":"576,-546v0,387,-130,704,-313,977r-194,0v125,-258,179,-425,223,-727v11,-74,14,-151,14,-229v0,-418,-87,-617,-239,-966r191,0v176,251,318,560,318,945","w":682},"*":{"d":"245,-792r-151,-117v60,-68,124,-130,189,-193v-16,-1,-227,-52,-255,-64r59,-176v87,35,165,74,234,117v-16,-109,-24,-197,-24,-266r178,0v0,49,-9,138,-27,268v13,-5,42,-18,86,-39v60,-27,115,-51,166,-70r53,181v-74,17,-160,33,-257,49r177,202r-153,101r-135,-223v-41,72,-87,149,-140,230","w":797},"+":{"d":"469,-211r0,-381r-384,0r0,-263r384,0r0,-381r256,0r0,381r385,0r0,263r-385,0r0,381r-256,0","w":1196},",":{"d":"140,-281r281,0v-2,129,8,302,-21,393v-32,104,-120,178,-228,215r-55,-116v105,-36,154,-85,159,-211r-136,0r0,-281","w":569},"-":{"d":"115,-391r0,-281r552,0r0,281r-552,0","w":682},"\u00ad":{"d":"115,-391r0,-281r552,0r0,281r-552,0","w":682},".":{"d":"147,0r0,-281r281,0r0,281r-281,0","w":569},"\/":{"d":"-3,25r363,-1516r211,0r-367,1516r-207,0","w":569},"0":{"d":"230,-1322v147,-198,518,-197,665,2v91,123,143,319,143,597v0,277,-48,477,-144,598v-79,100,-190,150,-332,150v-143,0,-258,-55,-345,-165v-87,-110,-131,-305,-131,-586v0,-276,52,-472,144,-596xm652,-1206v-51,-43,-130,-43,-181,0v-27,22,-45,61,-62,116v-35,111,-36,612,-3,722v31,102,58,160,156,160v91,0,125,-59,153,-149v34,-111,36,-612,3,-721v-19,-64,-40,-106,-66,-128"},"1":{"d":"162,-1101v151,-51,369,-207,416,-371r228,0r0,1472r-281,0r0,-1059v-103,96,-224,167,-363,213r0,-255","k":{"1":113}},"2":{"d":"571,-1472v337,-12,559,278,429,596v-65,159,-145,234,-296,375v-133,124,-159,137,-226,240r558,0r0,261r-985,0v11,-99,43,-192,96,-280v53,-88,159,-206,316,-352v127,-118,204,-198,233,-240v39,-58,58,-115,58,-172v1,-122,-70,-197,-190,-195v-135,2,-192,83,-200,229r-280,-28v25,-288,199,-424,487,-434"},"3":{"d":"1051,-440v0,258,-226,465,-492,465v-265,0,-459,-174,-482,-414r272,-33v13,123,86,214,208,214v124,0,206,-108,206,-244v0,-129,-79,-229,-196,-230v-36,0,-79,7,-129,21r31,-229v139,6,232,-63,234,-189v1,-97,-65,-164,-161,-162v-109,2,-175,84,-185,196r-259,-44v43,-243,184,-373,452,-383v230,-9,435,161,435,376v0,129,-70,231,-211,308v158,31,277,164,277,348"},"4":{"d":"638,0r0,-295r-600,0r0,-246r636,-931r236,0r0,930r182,0r0,247r-182,0r0,295r-272,0xm638,-542r0,-501r-337,501r337,0"},"5":{"d":"1077,-492v0,286,-219,517,-502,517v-271,0,-454,-162,-484,-402r280,-29v11,113,94,206,207,206v138,0,210,-122,210,-287v0,-162,-74,-270,-218,-270v-81,0,-153,36,-217,107r-228,-33r144,-763r743,0r0,263r-530,0r-44,249v321,-158,639,103,639,442"},"6":{"d":"1066,-472v0,288,-192,497,-471,497v-148,0,-270,-58,-365,-173v-95,-115,-143,-303,-143,-565v0,-269,50,-462,149,-581v99,-119,228,-178,387,-178v239,0,382,145,416,365r-272,30v-11,-101,-60,-164,-161,-164v-59,0,-109,27,-150,80v-41,53,-67,164,-78,333v70,-83,157,-124,261,-124v243,-2,427,219,427,480xm595,-745v-123,0,-193,107,-193,251v0,156,79,286,207,286v127,0,182,-104,182,-261v0,-163,-61,-276,-196,-276"},"7":{"d":"284,0v15,-460,211,-901,442,-1185r-639,0r0,-261r961,0r0,204v-249,254,-488,752,-493,1242r-271,0"},"8":{"d":"83,-419v4,-184,96,-313,245,-372v-126,-50,-208,-150,-208,-303v0,-235,182,-378,440,-378v256,0,440,144,440,378v0,151,-87,255,-202,303v146,57,247,176,249,360v4,271,-197,457,-474,457v-278,0,-495,-177,-490,-445xm563,-1249v-106,0,-177,70,-177,175v0,109,68,178,174,178v107,0,176,-70,176,-179v0,-103,-70,-174,-173,-174xm564,-671v-129,0,-202,110,-204,225v-3,141,80,246,208,246v127,0,201,-101,201,-243v0,-129,-83,-228,-205,-228"},"9":{"d":"65,-976v0,-285,194,-496,470,-496v149,0,271,57,366,172v95,115,143,305,143,568v0,268,-50,461,-149,580v-99,119,-229,178,-388,178v-246,0,-379,-139,-414,-365r272,-30v11,101,61,163,163,163v58,0,107,-27,148,-80v41,-53,67,-164,78,-332v-71,82,-159,123,-265,123v-241,1,-424,-219,-424,-481xm537,-701v123,0,192,-108,192,-252v0,-155,-79,-286,-207,-286v-127,0,-181,106,-181,263v0,162,62,275,196,275"},":":{"d":"201,-781r0,-281r281,0r0,281r-281,0xm201,0r0,-281r281,0r0,281r-281,0","w":682},";":{"d":"193,-781r0,-281r281,0r0,281r-281,0xm193,-281r281,0v-2,129,8,302,-21,393v-32,104,-120,178,-228,215r-55,-116v104,-35,154,-87,159,-211r-136,0r0,-281","w":682},"\u037e":{"d":"193,-781r0,-281r281,0r0,281r-281,0xm193,-281r281,0v-2,129,8,302,-21,393v-32,104,-120,178,-228,215r-55,-116v104,-35,154,-87,159,-211r-136,0r0,-281","w":682},"<":{"d":"1100,-167r-1005,-437r0,-242r1005,-435r0,285r-701,268r701,278r0,283","w":1196},"=":{"d":"85,-816r0,-258r1025,0r0,258r-1025,0xm85,-372r0,-259r1025,0r0,259r-1025,0","w":1196},">":{"d":"95,-166r0,-283r702,-276r-702,-273r0,-281r1006,435r0,240","w":1196},"?":{"d":"630,-1481v285,0,528,173,528,421v0,62,-17,121,-52,176v-35,55,-113,128,-225,226v-111,97,-130,95,-130,280r-255,0v-9,-254,49,-322,204,-451v81,-67,131,-110,147,-131v104,-142,-29,-316,-205,-307v-161,8,-248,98,-278,247r-258,-32v15,-249,240,-429,524,-429xm496,0r0,-281r281,0r0,281r-281,0","w":1251},"@":{"d":"1089,247v318,0,548,-88,688,-266r213,0v-140,288,-460,450,-885,450v-439,0,-773,-154,-927,-441v-163,-303,-148,-696,16,-996v163,-298,462,-486,892,-486v502,0,851,286,851,771v0,170,-52,324,-157,461v-131,173,-300,260,-505,260v-106,0,-159,-35,-181,-114v-79,76,-169,114,-272,114v-227,2,-385,-180,-385,-419v0,-323,237,-665,542,-665v119,0,206,45,263,136r25,-111r264,0r-151,717v-9,45,-14,75,-14,88v-1,29,14,49,39,50v32,0,73,-20,124,-58v122,-89,228,-271,228,-469v0,-352,-287,-577,-675,-577v-372,0,-622,165,-744,422v-64,134,-95,272,-95,417v0,472,349,716,846,716xm1002,-904v-212,0,-294,263,-306,474v-11,190,130,300,286,219v125,-65,199,-276,205,-459v4,-135,-66,-234,-185,-234","w":1997},"A":{"d":"1471,0r-322,0r-128,-333r-586,0r-121,333r-314,0r571,-1466r313,0xm926,-580r-202,-544r-198,544r400,0","w":1479,"k":{"y":76,"w":37,"v":76,"Y":188,"W":113,"V":152,"T":152," ":76}},"B":{"d":"1100,-779v161,44,278,166,278,354v0,231,-146,394,-372,415v-163,15,-624,9,-856,10r0,-1466r586,0v288,-6,422,33,525,198v31,50,45,108,45,171v-1,151,-93,269,-206,318xm446,-1222r0,339r194,0v115,0,187,-2,215,-5v94,-10,163,-67,163,-167v-1,-97,-57,-151,-149,-162v-39,-5,-315,-5,-423,-5xm446,-639r0,392r274,0v107,0,174,-3,203,-9v87,-16,151,-79,149,-183v-1,-95,-50,-152,-124,-179v-74,-26,-359,-20,-502,-21","w":1479},"C":{"d":"762,-228v190,0,285,-128,325,-311r287,91v-80,294,-263,470,-609,473v-405,3,-668,-314,-668,-745v0,-458,256,-771,686,-771v308,0,518,156,587,429r-293,70v-30,-142,-144,-246,-309,-246v-256,0,-366,193,-366,496v0,185,33,317,100,396v67,79,153,118,260,118","w":1479},"D":{"d":"148,-1466v262,7,617,-32,820,28v280,82,409,340,409,719v0,259,-74,448,-202,571v-103,99,-247,148,-470,148r-557,0r0,-1466xm444,-1218r0,971v123,-2,313,7,400,-14v188,-47,225,-219,227,-471v1,-198,-23,-319,-114,-403v-94,-87,-164,-81,-380,-83r-133,0","w":1479},"E":{"d":"149,0r0,-1466r1087,0r0,248r-791,0r0,325r736,0r0,247r-736,0r0,399r819,0r0,247r-1115,0","w":1366},"F":{"d":"151,0r0,-1466r1005,0r0,248r-709,0r0,347r612,0r0,248r-612,0r0,623r-296,0","w":1251,"k":{"A":113,".":227,",":227}},"G":{"d":"823,-228v134,2,268,-63,347,-125r0,-186r-339,0r0,-247r638,0r0,584v-117,115,-392,229,-627,227v-471,-3,-744,-302,-744,-763v0,-326,150,-562,377,-680v206,-107,614,-90,777,42v99,80,169,181,198,316r-294,55v-39,-139,-155,-234,-330,-233v-277,2,-423,188,-423,488v0,314,141,517,420,522","w":1593},"H":{"d":"150,0r0,-1466r296,0r0,577r580,0r0,-577r296,0r0,1466r-296,0r0,-641r-580,0r0,641r-296,0","w":1479},"I":{"d":"140,0r0,-1466r296,0r0,1466r-296,0","w":569},"J":{"d":"497,-228v166,0,181,-90,181,-291r0,-947r295,0r0,928v1,260,-42,382,-188,486v-74,53,-175,77,-298,77v-296,0,-453,-174,-452,-478r279,-32v4,164,48,257,183,257"},"K":{"d":"153,0r0,-1466r296,0r0,651r598,-651r398,0r-552,571r582,895r-383,0r-403,-688r-240,245r0,443r-296,0","w":1479},"L":{"d":"157,0r0,-1454r296,0r0,1207r736,0r0,247r-1032,0","w":1251,"k":{"y":76,"Y":188,"W":113,"V":152,"T":152," ":37}},"M":{"d":"145,0r0,-1466r443,0r266,1000r263,-1000r444,0r0,1466r-275,0r0,-1154r-291,1154r-285,0r-290,-1154r0,1154r-275,0","w":1706},"N":{"d":"152,0r0,-1466r288,0r600,979r0,-979r275,0r0,1466r-297,0r-591,-956r0,956r-275,0","w":1479},"O":{"d":"802,25v-441,0,-713,-297,-713,-749v0,-267,71,-440,203,-577v120,-125,278,-189,506,-190v441,-3,713,302,713,760v0,455,-270,756,-709,756xm801,-1238v-271,0,-407,200,-407,504v0,298,144,506,407,506v265,0,404,-207,404,-510v0,-304,-133,-500,-404,-500","w":1593},"P":{"d":"149,0r0,-1466r475,0v180,0,297,7,352,22v170,45,296,204,296,429v0,248,-136,393,-327,441v-104,26,-340,21,-500,21r0,553r-296,0xm445,-1218r0,416v122,0,338,1,396,-23v71,-30,125,-92,126,-186v2,-108,-74,-179,-166,-197v-52,-10,-254,-10,-356,-10","w":1366,"k":{"A":152,".":264,",":264," ":37}},"Q":{"d":"1510,-733v-3,246,-58,406,-181,547v73,52,152,93,237,124r-109,209v-159,-57,-122,-51,-328,-185v-96,42,-202,63,-319,63v-456,2,-721,-292,-721,-758v0,-462,266,-758,713,-758v444,0,714,298,708,758xm394,-733v0,303,135,512,397,512v43,0,83,-7,121,-21v-60,-39,-121,-70,-183,-92r83,-169v97,33,190,83,279,150v76,-89,112,-216,114,-380v4,-305,-135,-505,-405,-505v-268,0,-406,202,-406,505","w":1593},"R":{"d":"1349,-1055v0,243,-154,378,-387,408v169,104,202,162,327,361r179,286r-354,0r-214,-319v-76,-114,-127,-186,-156,-215v-63,-65,-105,-77,-238,-78r-60,0r0,612r-296,0r0,-1466r623,0v286,3,406,23,512,180v45,66,64,144,64,231xm446,-846r219,0v142,0,231,-6,266,-18v68,-23,113,-82,113,-172v0,-103,-60,-164,-151,-177v-61,-9,-335,-4,-447,-5r0,372","w":1479,"k":{"Y":76,"W":37,"V":37}},"S":{"d":"928,-1034v-26,-149,-97,-211,-269,-212v-86,0,-153,18,-202,53v-61,43,-62,133,-3,180v38,30,128,64,272,98v144,34,251,69,320,105v131,70,227,189,220,383v-10,308,-243,453,-587,453v-370,0,-565,-175,-605,-503r288,-28v32,180,123,276,320,281v161,4,288,-72,288,-202v0,-91,-54,-121,-137,-152v-35,-12,-114,-33,-237,-64v-159,-39,-269,-89,-334,-145v-144,-125,-181,-336,-72,-505v86,-132,251,-199,472,-199v337,0,546,149,562,444","w":1366},"T":{"d":"479,0r0,-1218r-435,0r0,-248r1165,0r0,248r-434,0r0,1218r-296,0","w":1251,"k":{"y":152,"w":152,"u":152,"s":152,"r":113,"o":152,"i":37,"e":152,"c":152,"a":152,"O":37,"A":152,";":227,":":227,".":227,"-":113,",":227}},"U":{"d":"147,-1466r296,0r0,794v0,126,4,208,11,245v27,124,128,199,286,199v151,0,245,-65,267,-178v10,-50,13,-133,13,-249r0,-811r296,0r0,770v-5,300,4,416,-112,557v-92,112,-238,164,-455,164v-252,0,-388,-52,-490,-175v-115,-138,-112,-261,-112,-534r0,-782","w":1479},"V":{"d":"523,0r-524,-1466r321,0r371,1085r359,-1085r314,0r-525,1466r-316,0","w":1366,"k":{"y":76,"u":76,"r":113,"o":152,"i":37,"e":113,"a":113,"A":152,";":113,":":113,".":188,"-":113,",":188}},"W":{"d":"357,0r-350,-1466r303,0r221,1007r268,-1007r352,0r257,1024r225,-1024r298,0r-356,1466r-314,0r-292,-1096r-291,1096r-321,0","w":1933,"k":{"y":37,"u":37,"r":37,"o":37,"i":18,"e":37,"a":76,"A":113,";":37,":":37,".":113,"-":41,",":113}},"X":{"d":"0,0r501,-765r-454,-701r346,0r294,471r288,-471r343,0r-456,712r501,754r-357,0r-325,-507r-326,507r-355,0","w":1366},"Y":{"d":"534,0r0,-617r-537,-849r347,0r345,580r338,-580r341,0r-539,851r0,615r-295,0","w":1366,"k":{"v":113,"u":113,"q":152,"p":113,"o":152,"i":76,"e":113,"a":113,"A":188,";":152,":":152,".":227,"-":113,",":227," ":37}},"Z":{"d":"22,0r0,-267r770,-951r-683,0r0,-248r1073,0r0,230r-803,989r834,0r0,247r-1191,0","w":1251},"[":{"d":"146,413r0,-1879r498,0r0,221r-231,0r0,1437r231,0r0,221r-498,0","w":682},"\\":{"d":"-3,-1491r207,0r367,1516r-211,0","w":569},"]":{"d":"536,-1466r0,1879r-498,0r0,-221r231,0r0,-1439r-231,0r0,-219r498,0","w":682},"^":{"d":"115,-692r376,-799r223,0r366,799r-284,0r-198,-489r-197,489r-286,0","w":1196},"_":{"d":"-19,405r0,-182r1168,0r0,182r-1168,0"},"`":{"d":"495,-1192r-177,0r-276,-299r315,0","w":682},"a":{"d":"542,-871v-113,2,-152,42,-185,133r-255,-46v62,-210,185,-301,460,-302v214,-1,343,43,410,158v61,104,32,401,34,579v2,181,9,232,64,349r-278,0v-9,-19,-27,-86,-37,-116v-84,81,-182,137,-329,140v-204,5,-353,-124,-353,-314v0,-231,163,-293,387,-334v131,-24,222,-48,273,-69v4,-139,-44,-180,-191,-178xm409,-418v-113,78,-31,244,101,244v89,0,190,-65,212,-143v8,-27,12,-129,11,-193v-54,22,-281,62,-324,92"},"b":{"d":"728,24v-147,0,-263,-80,-332,-180r0,156r-261,0r0,-1466r281,0r0,528v87,-99,189,-148,308,-148v283,0,448,228,448,544v0,321,-166,566,-444,566xm649,-871v-156,0,-235,132,-235,317v0,212,81,356,246,356v152,0,224,-139,224,-330v0,-206,-67,-343,-235,-343","w":1251},"c":{"d":"85,-530v0,-336,191,-557,515,-556v272,1,409,120,473,338r-277,50v-17,-103,-79,-167,-192,-167v-166,0,-230,118,-230,315v0,215,58,345,234,345v129,0,179,-74,203,-202r276,47v-55,242,-206,383,-492,384v-319,1,-510,-223,-510,-554"},"d":{"d":"84,-535v0,-324,161,-551,448,-551v119,0,221,49,308,148r0,-528r281,0r0,1466r-261,0r0,-156v-71,103,-184,180,-332,180v-271,0,-444,-248,-444,-559xm606,-871v-154,0,-235,135,-235,317v0,113,16,195,47,246v45,73,109,110,190,110v153,0,233,-143,233,-329v0,-207,-67,-344,-235,-344","w":1251},"e":{"d":"583,-186v104,0,153,-59,179,-152r280,47v-67,193,-214,312,-462,315v-330,4,-515,-217,-515,-547v0,-325,188,-563,487,-563v349,0,519,245,505,636r-704,0v0,152,90,264,230,264xm778,-622v0,-145,-80,-249,-209,-249v-130,0,-216,108,-211,249r420,0"},"f":{"d":"575,-1275v-91,0,-113,38,-114,138r0,75r210,0r0,221r-210,0r0,841r-281,0r0,-841r-156,0r0,-221r156,0r0,-80v-10,-252,98,-349,327,-349v80,0,158,12,235,36r-38,196v-45,-11,-88,-16,-129,-16","w":682},"g":{"d":"1120,-109v11,395,-134,540,-504,540v-180,0,-308,-31,-383,-93v-84,-70,-120,-148,-112,-268r321,39v13,89,63,107,163,107v174,0,241,-44,234,-233r0,-155v-84,115,-190,172,-318,172v-266,0,-437,-244,-437,-537v0,-320,166,-549,448,-549v131,0,240,58,325,173r0,-149r263,0r0,953xm604,-871v-157,0,-232,132,-232,318v0,191,71,326,227,326v157,0,245,-135,245,-319v0,-192,-78,-325,-240,-325","w":1251},"h":{"d":"658,-871v-181,0,-231,128,-231,339r0,532r-281,0r0,-1466r281,0r0,539v124,-150,311,-207,500,-123v156,70,186,187,186,427r0,623r-281,0r0,-561v-5,-179,8,-222,-72,-283v-26,-19,-61,-27,-102,-27","w":1251},"i":{"d":"147,-1206r0,-260r281,0r0,260r-281,0xm147,0r0,-1062r281,0r0,1062r-281,0","w":569},"j":{"d":"141,-1206r0,-260r281,0r0,260r-281,0xm-45,161v72,21,160,4,177,-54v5,-18,9,-69,9,-156r0,-1013r281,0r0,1029v-5,237,-4,331,-128,417v-94,65,-267,54,-388,17","w":569},"k":{"d":"137,0r0,-1466r281,0r0,778r329,-374r346,0r-363,388r389,674r-303,0r-267,-477r-131,137r0,340r-281,0"},"l":{"d":"147,0r0,-1466r281,0r0,1466r-281,0","w":569},"m":{"d":"1016,-917v80,-96,173,-169,324,-169v162,0,269,70,319,187v19,45,29,119,29,220r0,679r-281,0r0,-607v0,-105,-10,-173,-29,-204v-44,-73,-160,-78,-231,-24v-86,65,-98,153,-98,325r0,510r-281,0r0,-582v-4,-161,6,-213,-62,-267v-51,-40,-150,-26,-202,13v-86,66,-97,145,-97,320r0,516r-281,0r0,-1062r259,0r0,145v93,-113,203,-169,331,-169v150,0,242,65,300,169","w":1821},"n":{"d":"1113,0r-281,0r0,-542v-4,-185,6,-238,-76,-301v-62,-48,-168,-34,-229,12v-99,76,-101,146,-101,350r0,481r-281,0r0,-1062r261,0r0,156v122,-163,317,-230,520,-146v149,61,187,173,187,392r0,660","w":1251},"o":{"d":"631,24v-335,-9,-557,-212,-549,-570v7,-316,219,-536,547,-540v315,-3,549,239,549,552v0,313,-237,566,-547,558xm630,-857v-163,0,-260,139,-260,326v0,188,96,326,260,326v164,0,259,-139,259,-328v0,-186,-96,-324,-259,-324","w":1251},"p":{"d":"730,24v-152,0,-219,-61,-310,-155r0,535r-281,0r0,-1466r262,0r0,156v61,-97,180,-182,331,-180v271,3,443,241,443,549v0,315,-170,561,-445,561xm656,-864v-157,0,-239,133,-239,315v0,203,79,350,244,350v161,0,228,-136,228,-336v0,-191,-75,-329,-233,-329","w":1251},"q":{"d":"542,-1086v162,0,249,74,321,181r0,-157r259,0r0,1466r-281,0r0,-534v-65,85,-174,154,-314,154v-284,0,-436,-263,-436,-567v0,-310,173,-543,451,-543xm607,-198v155,0,243,-153,243,-346v0,-188,-76,-322,-233,-322v-163,0,-239,139,-239,338v0,198,70,330,229,330","w":1251},"r":{"d":"396,-911v75,-112,105,-175,242,-175v64,0,126,18,185,53r-87,245v-78,-52,-162,-66,-232,-14v-28,21,-48,62,-64,118v-31,106,-23,491,-24,684r-281,0r0,-1062r261,0r0,151","w":797,"k":{".":113,",":113}},"s":{"d":"1040,-332v0,227,-210,356,-483,356v-277,0,-453,-118,-509,-327r282,-43v25,109,94,168,227,167v107,-1,201,-22,201,-115v0,-66,-39,-72,-114,-90v-226,-53,-370,-96,-431,-137v-84,-57,-126,-137,-126,-239v0,-217,185,-326,447,-326v276,0,407,82,470,281r-265,49v-25,-86,-86,-129,-200,-128v-74,0,-127,10,-159,31v-40,26,-44,80,-4,108v25,19,112,45,262,79v150,34,255,75,314,125v59,50,88,120,88,209"},"t":{"d":"634,-1062r0,224r-192,0r0,428v6,128,-14,146,30,187v52,28,88,10,161,-13r24,218v-134,63,-381,60,-449,-50v-51,-83,-48,-138,-48,-307r0,-463r-129,0r0,-224r129,0r0,-211r282,-164r0,375r192,0","w":682},"u":{"d":"494,24v-242,0,-353,-143,-353,-414r0,-672r281,0r0,488v0,149,8,240,16,274v25,111,196,143,289,70v110,-87,99,-136,99,-384r0,-448r281,0r0,1062r-261,0r0,-159v-67,101,-197,183,-352,183","w":1251},"v":{"d":"439,0r-428,-1062r295,0r200,542r58,181r59,-181r202,-542r289,0r-422,1062r-253,0","k":{".":152,",":152}},"w":{"d":"345,0r-336,-1062r273,0r199,696r183,-696r271,0r177,696r203,-696r277,0r-341,1062r-270,0r-183,-683r-180,683r-273,0","w":1593,"k":{".":76,",":76}},"x":{"d":"12,0r383,-547r-367,-515r343,0r188,292r198,-292r330,0r-360,503r393,559r-345,0r-216,-329r-218,329r-329,0"},"y":{"d":"14,-1062r299,0r254,754r248,-754r291,0r-442,1207v-67,184,-160,282,-398,286v-54,0,-107,-6,-159,-17r-25,-220v105,22,212,21,264,-44v31,-39,55,-88,72,-147","k":{".":152,",":152}},"z":{"d":"34,0r0,-219r398,-457v65,-75,114,-128,145,-159v-33,2,-76,3,-129,4r-375,2r0,-233r878,0r0,199r-406,468r-143,155v219,-15,365,-4,580,-7r0,247r-948,0","w":1024},"{":{"d":"539,46v4,139,50,143,205,145r0,240v-244,9,-397,-37,-448,-217v-21,-76,-13,-409,-33,-470v-35,-105,-76,-146,-203,-154r0,-240v200,-11,219,-134,219,-356v0,-215,-4,-301,83,-394v73,-78,202,-98,382,-91r0,239v-155,2,-199,2,-204,138v-2,63,-6,326,-35,400v-36,92,-70,129,-153,184v122,71,172,174,180,364v5,111,7,181,7,212","w":797},"|":{"d":"176,431r0,-1922r223,0r0,1922r-223,0","w":573},"}":{"d":"98,-1491v323,-4,412,112,412,448v0,122,5,202,15,239v31,106,77,146,204,154r0,240v-142,2,-189,70,-211,189v-16,88,-9,382,-26,437v-33,110,-89,161,-202,197v-45,14,-156,19,-245,18r0,-240v114,-2,152,-1,189,-53v12,-16,15,-45,16,-86v2,-64,6,-329,35,-400v34,-84,77,-138,152,-182v-104,-66,-148,-127,-172,-262v-8,-46,-13,-149,-16,-308v-2,-151,-42,-148,-204,-152r0,-239r53,0","w":797},"~":{"d":"1129,-654v-75,77,-238,164,-397,120v-77,-21,-311,-124,-392,-124v-93,0,-184,46,-273,139r0,-259v111,-119,237,-159,412,-126v48,9,319,129,377,124v111,-9,204,-67,273,-144r0,270","w":1196}}});
/*!
 * The following copyright notice may not be removed under any circumstances.
 * 
 * Copyright:
 * © 2008 The Monotype Corporation. All Rights Reserved.
 * 
 * Trademark:
 * Arial is a trademark of The Monotype Corporation in the United States and/or
 * other countries.
 * 
 * Manufacturer:
 * The Monotype Corporation
 * 
 * Designer:
 * Monotype Type Drawing Office - Robin Nicholas, Patricia Saunders 1982
 */
Cufon.registerFont({"w":1139,"face":{"font-family":"arial","font-weight":400,"font-style":"italic","font-stretch":"normal","units-per-em":"2048","panose-1":"2 11 6 4 2 2 2 9 2 4","ascent":"1638","descent":"-410","x-height":"24","bbox":"-248 -1564 2174 432.665","underline-thickness":"150","underline-position":"-142","slope":"-12","unicode-range":"U+0020-U+007E"},"glyphs":{" ":{"w":569,"k":{"Y":37,"A":76}},"\u00a0":{"w":569},"!":{"d":"229,-370r111,-796r63,-300r219,0r-68,325r-212,771r-113,0xm115,0r43,-205r204,0r-43,205r-204,0","w":569},"\"":{"d":"277,-947r12,-274r52,-245r206,0r-53,245r-105,274r-112,0xm608,-947r12,-274r52,-245r206,0r-53,245r-105,274r-112,0","w":727},"#":{"d":"177,25r87,-426r-169,0r0,-149r199,0r74,-363r-273,0r0,-149r303,0r87,-429r150,0r-87,429r315,0r87,-429r151,0r-87,429r173,0r0,149r-203,0r-75,363r278,0r0,149r-308,0r-87,426r-150,0r86,-426r-314,0r-87,426r-150,0xm444,-550r314,0r75,-363r-315,0"},"$":{"d":"317,-922v-144,-295,124,-594,450,-564r16,-78r100,0r-19,91v179,45,286,161,309,361r-173,9v-19,-119,-65,-185,-167,-221r-105,503v135,55,228,116,278,181v102,131,95,298,8,446v-87,147,-238,226,-463,219r-36,171r-99,0r38,-183v-193,-37,-341,-214,-349,-437r182,-11v9,152,84,257,198,299r116,-553v-149,-64,-225,-111,-284,-233xm737,-1341v-160,-4,-281,89,-281,243v0,136,66,179,180,237xm581,-119v218,20,408,-226,277,-419v-26,-39,-83,-75,-166,-112"},"%":{"d":"286,54r1211,-1545r164,0r-1206,1545r-169,0xm468,-707v-232,0,-309,-201,-250,-434v46,-183,128,-334,348,-337v186,-2,291,96,286,281v-7,246,-117,490,-384,490xm571,-1357v-158,0,-211,218,-218,375v-4,98,33,154,116,154v168,0,217,-229,225,-390v4,-83,-45,-139,-123,-139xm1362,54v-233,0,-309,-201,-250,-434v46,-183,128,-334,348,-337v186,-2,291,96,286,281v-7,246,-117,490,-384,490xm1465,-596v-158,0,-212,219,-218,376v-4,97,33,154,116,154v167,0,217,-230,225,-390v4,-84,-45,-140,-123,-140","w":1821},"&":{"d":"836,-1491v174,-3,315,119,314,281v0,66,-25,131,-74,196v-49,65,-146,134,-291,207v87,158,171,288,252,389v49,-59,95,-129,139,-209r158,81v-44,93,-105,183,-183,272v43,55,100,122,169,200r-136,109v-68,-58,-124,-117,-168,-178v-143,110,-211,169,-411,175v-253,8,-446,-171,-444,-413v2,-176,74,-280,181,-366v46,-37,114,-74,204,-115v-56,-130,-77,-141,-77,-274v0,-201,156,-351,367,-355xm834,-1346v-93,0,-177,94,-177,191v0,63,21,134,62,213v98,-50,168,-101,210,-154v29,-36,44,-73,44,-110v0,-76,-63,-140,-139,-140xm345,-402v0,147,121,271,267,271v101,0,200,-50,299,-151v-125,-163,-222,-310,-291,-439v-91,43,-155,84,-194,124v-54,56,-81,121,-81,195","w":1366},"'":{"d":"260,-947r12,-274r52,-245r206,0r-53,245r-105,274r-112,0","w":391},"(":{"d":"330,431v-165,-356,-214,-765,-94,-1157v97,-316,235,-500,469,-765r141,0v-157,167,-369,531,-437,798v-100,390,-65,740,56,1124r-135,0","w":682},")":{"d":"406,-1491v166,356,214,765,94,1157v-97,316,-235,500,-468,765r-141,0v155,-168,369,-532,437,-799v99,-389,64,-741,-57,-1123r135,0","w":682},"*":{"d":"236,-1197r46,-142v106,37,183,70,231,97v-13,-121,-19,-204,-20,-249r145,0v-2,66,-10,149,-23,248v69,-35,147,-67,236,-96r46,142v-85,28,-168,47,-249,56v41,35,98,98,172,189r-120,85v-39,-53,-84,-124,-137,-215v-49,94,-93,166,-130,215r-118,-85v77,-95,133,-158,166,-189v-86,-17,-168,-35,-245,-56","w":797},"+":{"d":"583,-237r0,-402r-399,0r0,-168r399,0r0,-399r170,0r0,399r399,0r0,168r-399,0r0,402r-170,0","w":1196},",":{"d":"111,0r43,-205r206,0v-30,147,-62,338,-142,415v-50,48,-104,79,-169,86r17,-79v79,-22,132,-94,157,-217r-112,0","w":569},"-":{"d":"95,-440r38,-181r552,0r-37,181r-553,0","w":682},"\u00ad":{"d":"95,-440r38,-181r552,0r-37,181r-553,0","w":682},".":{"d":"118,0r43,-205r205,0r-44,205r-204,0","w":569},"\/":{"d":"-104,24r788,-1515r157,0r-788,1515r-157,0","w":569},"0":{"d":"537,25v-249,0,-400,-217,-392,-506v9,-350,135,-700,320,-865v85,-76,160,-126,300,-126v248,0,393,205,393,486v0,356,-141,746,-334,904v-85,70,-180,107,-287,107xm986,-1029v0,-184,-64,-298,-220,-298v-128,0,-188,69,-254,164v-85,122,-189,520,-192,728v-2,181,71,316,226,316v70,0,133,-32,191,-95v82,-90,145,-220,187,-392v42,-172,62,-314,62,-423"},"1":{"d":"493,0r232,-1107v-100,79,-241,142,-422,189r34,-164v155,-58,364,-196,464,-293v27,-27,52,-59,76,-97r105,0r-307,1472r-182,0","k":{"1":152}},"2":{"d":"721,-1472v250,1,430,152,430,392v0,97,-35,191,-104,281v-43,56,-169,165,-376,331v-141,113,-222,178,-298,302r656,0r-35,166r-874,0v39,-179,102,-277,209,-388v58,-61,420,-336,510,-433v75,-80,127,-137,132,-264v5,-132,-113,-247,-247,-242v-172,7,-256,126,-290,301r-177,-26v28,-243,203,-420,464,-420"},"3":{"d":"1070,-461v6,258,-238,486,-500,486v-263,0,-442,-165,-458,-409r176,-22v23,180,93,280,268,287v169,7,329,-152,329,-316v0,-166,-141,-275,-327,-245r31,-151v206,28,369,-79,372,-257v2,-131,-107,-242,-236,-239v-149,4,-254,122,-274,270r-178,-36v49,-219,216,-374,465,-379v227,-5,406,161,403,377v-3,181,-102,280,-242,346v101,60,167,144,171,288"},"4":{"d":"612,0r79,-374r-598,0r38,-179r821,-913r148,0r-195,932r206,0r-33,160r-206,0r-79,374r-181,0xm724,-534r128,-612r-546,612r418,0"},"5":{"d":"559,25v-261,0,-423,-182,-416,-444r184,-18v-16,180,83,318,244,318v217,0,360,-222,366,-447v4,-160,-106,-274,-263,-271v-130,3,-213,67,-281,152r-158,-11r221,-750r716,0r-35,166r-557,0r-110,373v72,-52,152,-89,262,-90v231,-2,389,172,384,415v-7,346,-217,607,-557,607"},"6":{"d":"995,-1095v-14,-135,-73,-225,-198,-225v-226,0,-334,279,-385,470v85,-69,173,-124,301,-126v229,-4,385,179,385,421v0,290,-211,585,-502,580v-265,-4,-432,-217,-425,-514v9,-380,159,-787,415,-928v144,-79,361,-74,469,39v61,64,99,151,108,267xm675,-831v-179,0,-326,208,-326,419v0,149,115,299,251,293v191,-8,319,-215,326,-417v5,-163,-103,-295,-251,-295"},"7":{"d":"297,0v100,-489,371,-980,682,-1280r-731,0r35,-166r936,0r-34,166v-319,268,-602,823,-699,1280r-189,0"},"8":{"d":"153,-373v0,-222,129,-385,309,-433v-95,-50,-164,-139,-164,-267v0,-222,209,-399,443,-399v236,0,415,143,415,357v0,172,-103,274,-248,330v112,68,173,151,175,306v4,268,-221,505,-511,505v-236,0,-419,-170,-419,-399xm755,-1327v-160,2,-276,109,-279,262v-2,129,93,209,227,209v156,0,279,-112,279,-261v0,-128,-93,-212,-227,-210xm660,-722v-188,0,-332,164,-325,364v4,145,105,234,256,239v173,6,310,-191,310,-371v0,-136,-102,-232,-241,-232"},"9":{"d":"707,-1472v265,4,422,219,422,515v0,346,-148,726,-337,876v-154,123,-406,149,-546,11v-64,-63,-100,-151,-108,-266r170,-17v18,137,71,227,196,227v69,0,134,-30,193,-90v87,-88,152,-214,193,-379v-101,72,-168,126,-306,126v-223,0,-380,-188,-380,-426v0,-290,210,-582,503,-577xm903,-818v114,-201,35,-509,-200,-509v-206,0,-310,202,-324,411v-14,226,210,387,397,251v48,-35,89,-87,127,-153"},":":{"d":"296,-857r43,-205r204,0r-42,205r-205,0xm117,0r43,-205r205,0r-44,205r-204,0","w":569},";":{"d":"290,-857r43,-205r204,0r-43,205r-204,0xm111,0r43,-205r206,0v-30,147,-62,338,-142,415v-50,48,-104,79,-169,86r17,-79v79,-22,132,-94,157,-217r-112,0","w":569},"\u037e":{"d":"290,-857r43,-205r204,0r-43,205r-204,0xm111,0r43,-205r206,0v-30,147,-62,338,-142,415v-50,48,-104,79,-169,86r17,-79v79,-22,132,-94,157,-217r-112,0","w":569},"<":{"d":"184,-641r0,-168r971,-410r0,179r-770,316r770,319r0,179","w":1196},"=":{"d":"1152,-862r-968,0r0,-168r968,0r0,168xm1152,-417r-968,0r0,-168r968,0r0,168","w":1196},">":{"d":"1155,-641r-971,415r0,-179r769,-319r-769,-316r0,-179r971,410r0,168","w":1196},"?":{"d":"726,-1491v235,0,422,135,422,359v0,74,-25,145,-74,212v-37,51,-122,124,-247,229v-147,123,-190,142,-227,324r-171,0v17,-139,60,-214,137,-306v44,-52,329,-269,362,-341v22,-49,41,-91,41,-131v0,-114,-112,-206,-238,-201v-184,7,-263,120,-290,311r-181,-30v47,-253,198,-426,466,-426xm340,0r43,-205r205,0r-43,205r-205,0"},"@":{"d":"1354,4v-125,0,-185,-42,-193,-167v-72,83,-174,166,-307,166v-229,0,-360,-207,-362,-449v-2,-224,140,-467,284,-558v82,-51,159,-80,235,-80v142,0,240,80,302,184r34,-155r179,0r-144,671v-20,93,-30,145,-30,155v-1,36,33,66,70,66v35,0,81,-21,139,-61v136,-92,247,-281,247,-492v0,-394,-312,-631,-715,-631v-506,0,-828,360,-834,862v-6,514,350,762,861,768v327,4,576,-125,704,-302r181,0v-82,160,-274,316,-470,387v-222,81,-582,80,-821,6v-361,-112,-603,-395,-603,-843v0,-390,200,-721,447,-880v257,-165,700,-193,990,-43v222,115,408,360,408,679v0,193,-68,365,-204,515v-121,135,-254,202,-398,202xm1256,-649v9,-209,-173,-354,-352,-253v-129,73,-219,270,-227,468v-8,203,152,357,332,256v139,-78,238,-257,247,-471","w":2079},"A":{"d":"-41,0r831,-1466r231,0r242,1466r-190,0r-71,-422r-593,0r-235,422r-215,0xm493,-573r485,0r-57,-368v-22,-146,-36,-268,-41,-365v-94,229,-266,507,-387,733","w":1366,"k":{"y":18,"w":37,"v":37,"Y":152,"W":37,"V":113,"T":152," ":76}},"B":{"d":"1071,-765v139,44,237,139,237,301v0,274,-219,464,-509,464r-710,0r307,-1466r454,0v171,-1,254,14,350,70v84,50,141,151,141,278v0,188,-111,300,-270,353xm461,-840v210,-2,494,14,603,-68v84,-63,129,-206,65,-305v-51,-79,-106,-86,-260,-86r-312,0xm1108,-463v0,-170,-104,-209,-310,-210r-372,0r-106,507r334,0v176,1,238,-9,330,-64v70,-41,124,-130,124,-233","w":1366},"C":{"d":"781,-137v235,0,395,-172,454,-379r194,27v-61,169,-151,297,-268,384v-117,87,-249,130,-395,130v-368,0,-580,-244,-580,-630v0,-468,307,-886,765,-886v308,0,517,184,545,461r-183,17v-34,-194,-143,-312,-353,-316v-346,-7,-579,357,-579,728v0,278,145,464,400,464","w":1479},"D":{"d":"91,0r306,-1466v217,5,516,-20,685,23v244,62,376,270,376,576v0,355,-166,607,-374,751v-118,81,-259,116,-465,116r-528,0xm322,-166v240,-1,494,13,641,-82v115,-74,198,-202,251,-342v58,-154,67,-439,-17,-560v-86,-123,-164,-149,-379,-149r-259,0","w":1479},"E":{"d":"92,0r307,-1466r1058,0r-35,167r-862,0r-96,456r840,0r-35,167r-840,0r-106,510r923,0r-35,166r-1119,0","w":1366},"F":{"d":"93,0r306,-1466r953,0r-35,167r-757,0r-97,467r771,0r-35,167r-771,0r-139,665r-196,0","w":1251,"k":{"A":152,".":264,",":264," ":37}},"G":{"d":"398,-584v-3,281,143,446,410,447v127,0,264,-42,411,-126r66,-315r-446,0r35,-166r642,0r-125,597v-143,91,-362,169,-581,172v-385,4,-609,-234,-611,-612v-2,-354,186,-670,411,-801v189,-111,464,-141,674,-46v168,76,244,193,285,397r-192,21v-37,-189,-163,-312,-379,-312v-392,0,-595,332,-600,744","w":1593},"H":{"d":"86,0r307,-1466r195,0r-127,609r760,0r127,-609r196,0r-306,1466r-196,0r144,-691r-759,0r-145,691r-196,0","w":1479},"I":{"d":"117,0r307,-1466r195,0r-306,1466r-196,0","w":569},"J":{"d":"436,25v-228,6,-366,-105,-368,-320v0,-45,5,-89,15,-132r182,-13v-11,57,-16,98,-16,125v0,111,76,180,191,178v99,-2,159,-47,195,-121v16,-31,32,-88,49,-169r218,-1039r195,0r-223,1071v-54,262,-166,413,-438,420","w":1024},"K":{"d":"91,0r306,-1466r196,0r-147,706r796,-706r276,0r-681,597r499,869r-219,0r-423,-743r-307,267r-100,476r-196,0","w":1366},"L":{"d":"82,0r306,-1466r196,0r-271,1300r761,0r-35,166r-957,0","k":{"y":37,"Y":188,"W":76,"V":113,"T":152," ":37}},"M":{"d":"90,0r306,-1466r241,0r148,950v19,125,32,244,38,359v41,-99,109,-232,204,-401r514,-908r245,0r-306,1466r-193,0r153,-713v35,-165,86,-349,152,-554v-42,95,-94,198,-156,308r-546,959r-189,0r-147,-940v-13,-86,-23,-186,-29,-301v-17,129,-33,231,-49,306r-195,935r-191,0","w":1706},"N":{"d":"100,0r307,-1466r190,0r247,550v127,291,180,397,267,694v18,-123,41,-251,68,-382r180,-862r191,0r-306,1466r-194,0r-364,-847v-65,-149,-115,-281,-151,-395v-53,401,-168,848,-244,1242r-191,0","w":1479},"O":{"d":"801,25v-374,0,-614,-266,-614,-639v0,-261,76,-472,227,-634v151,-162,334,-243,549,-243v370,0,625,274,619,657v-6,377,-202,660,-463,787v-100,49,-206,72,-318,72xm1387,-849v5,-271,-174,-479,-425,-479v-153,0,-289,65,-406,196v-117,131,-176,307,-176,528v0,273,173,467,436,467v177,0,305,-95,398,-203v97,-112,169,-313,173,-509","w":1593},"P":{"d":"88,0r307,-1466r612,0v208,1,291,38,370,162v108,170,15,430,-79,538v-172,196,-535,168,-890,171r-124,595r-196,0xm443,-761v195,-4,476,12,599,-41v131,-56,256,-258,166,-416v-48,-85,-112,-89,-275,-89r-376,0","w":1366,"k":{"A":152,".":264,",":264," ":76}},"Q":{"d":"1584,-834v-4,321,-150,571,-346,716v49,59,116,115,200,170r-87,116v-89,-58,-168,-128,-239,-211v-181,84,-323,91,-521,29v-257,-79,-402,-298,-402,-626v0,-367,192,-650,445,-776v102,-50,212,-75,331,-75v370,0,624,274,619,657xm873,-426v108,49,156,92,245,182v149,-111,271,-351,271,-601v0,-272,-171,-483,-421,-483v-365,0,-574,322,-586,704v-10,332,279,580,607,453v-61,-55,-123,-100,-187,-133","w":1593},"R":{"d":"96,0r307,-1466r615,0v225,3,340,18,424,145v37,55,53,127,53,212v0,119,-39,218,-117,297v-78,79,-204,130,-378,153v213,155,272,412,381,659r-219,0v-71,-178,-136,-387,-235,-529v-71,-100,-106,-122,-271,-122r-228,0r-136,651r-196,0xm461,-810r271,0v232,-1,299,4,427,-55v111,-51,199,-225,120,-359v-45,-77,-100,-81,-236,-81r-478,0","w":1479,"k":{"Y":76,"W":37,"V":37,"T":37}},"S":{"d":"1112,-1235v-139,-145,-604,-136,-597,125v3,98,51,133,129,180v48,29,404,181,465,225v93,66,166,155,166,300v0,286,-258,430,-566,430v-166,0,-302,-37,-407,-109v-105,-72,-157,-202,-158,-390r192,-18v-23,247,140,354,380,354v198,0,361,-94,361,-253v0,-46,-16,-88,-49,-126v-33,-38,-124,-88,-273,-152v-115,-50,-195,-88,-236,-115v-113,-75,-193,-156,-193,-316v0,-269,231,-389,513,-391v313,-1,536,147,535,441r-189,15v1,-102,-25,-150,-73,-200","w":1366},"T":{"d":"465,0r271,-1299r-481,0r35,-167r1154,0r-35,167r-477,0r-271,1299r-196,0","w":1251,"k":{"y":152,"w":152,"u":152,"s":188,"r":152,"o":188,"i":18,"e":188,"c":188,"a":188,"O":37,"A":152,";":152,":":152,".":188,"-":188,",":188}},"U":{"d":"728,26v-305,-2,-530,-136,-530,-427v0,-51,15,-139,41,-265r167,-800r196,0r-188,901v-15,75,-23,130,-23,166v-6,241,333,330,535,211v164,-96,202,-221,254,-471r169,-807r196,0r-179,860v-60,275,-132,436,-329,554v-88,53,-192,78,-309,78","w":1479},"V":{"d":"536,0r-282,-1466r189,0r170,874v31,159,52,287,61,384v61,-125,112,-225,151,-298r523,-960r202,0r-804,1466r-210,0","w":1366,"k":{"y":37,"u":37,"r":37,"o":76,"i":37,"e":76,"a":76,"A":113,";":37,":":37,".":152,"-":76,",":152}},"W":{"d":"346,0r-90,-1466r199,0r34,725v1,17,11,268,12,372v0,11,0,44,-1,99v81,-167,140,-284,176,-352r446,-844r202,0r49,857v5,98,9,216,11,354v179,-437,391,-804,590,-1211r200,0r-746,1466r-210,0r-49,-888v-5,-76,-8,-169,-11,-280v-41,93,-75,165,-102,216r-508,952r-202,0","w":1933,"k":{"i":18,"e":37,"a":37,"A":37,".":76,"-":37,",":76}},"X":{"d":"-65,0r700,-741r-415,-725r216,0r275,485v17,33,36,72,57,117v130,-172,386,-425,551,-602r256,0r-709,757r402,709r-213,0r-238,-429v-23,-42,-50,-96,-81,-162v-161,203,-366,397,-541,591r-260,0","w":1366},"Y":{"d":"572,0r118,-567r-451,-899r210,0r216,428v47,93,93,193,138,300v137,-245,372,-500,546,-728r234,0r-700,914r-115,552r-196,0","w":1366,"k":{"v":76,"u":76,"q":113,"p":113,"o":113,"i":37,"e":113,"a":152,"A":113,";":76,":":76,".":188,"-":152,",":188," ":37}},"Z":{"d":"50,0r19,-147r886,-1061v31,-37,60,-72,89,-103v-125,17,-174,12,-293,12r-493,0r35,-167r1011,0r-17,153r-971,1152v29,-4,48,-6,57,-6r799,0r-35,167r-1087,0","w":1251},"[":{"d":"13,401r385,-1867r403,0r-29,139r-219,0r-332,1589r221,0r-29,139r-400,0","w":569},"\\":{"d":"420,24r-246,-1515r140,0r246,1515r-140,0","w":569},"]":{"d":"280,401r-400,0r29,-139r221,0r332,-1589r-220,0r29,-139r403,0","w":569},"^":{"d":"329,-690r-185,0r353,-801r145,0r355,801r-181,0r-247,-597","w":961},"_":{"d":"-130,407r0,-130r1193,0r0,130r-1193,0"},"`":{"d":"493,-1191r-195,-275r220,0r116,275r-141,0","w":682},"a":{"d":"194,-760v70,-200,224,-325,484,-326v131,0,234,33,312,94v111,88,97,217,63,379v-29,139,-84,326,-87,469v0,33,7,81,22,144r-183,0v-10,-35,-17,-79,-21,-132v-108,90,-200,152,-367,156v-188,5,-331,-126,-327,-308v5,-198,135,-291,312,-327v80,-16,411,-16,476,-55v14,-49,21,-90,21,-123v0,-113,-106,-148,-230,-149v-158,-1,-250,75,-292,194xm270,-290v0,109,83,176,202,174v137,-3,251,-82,304,-180v31,-57,57,-137,75,-242v-94,45,-361,44,-450,76v-75,27,-131,84,-131,172"},"b":{"d":"706,0v-205,72,-382,-33,-437,-201r-42,201r-159,0r306,-1466r181,0r-109,524v96,-84,160,-144,302,-144v221,0,352,182,348,434v-4,267,-113,467,-261,582v-42,32,-85,54,-129,70xm918,-658v0,-160,-83,-282,-224,-282v-65,0,-125,27,-180,76v-88,78,-179,291,-179,462v0,163,83,278,227,278v165,0,251,-122,305,-274v34,-94,51,-181,51,-260"},"c":{"d":"506,-116v154,0,249,-124,295,-271r181,19v-75,227,-221,387,-479,392v-239,5,-394,-172,-388,-425v9,-365,188,-682,560,-685v220,-2,373,138,371,352r-178,12v1,-130,-83,-216,-210,-215v-264,2,-350,291,-360,549v-6,159,73,272,208,272","w":1024},"d":{"d":"460,24v-223,0,-352,-182,-352,-435v0,-257,125,-492,278,-595v197,-133,436,-100,539,111r120,-571r180,0r-306,1466r-167,0r32,-154v-103,119,-211,178,-324,178xm869,-669v0,-201,-178,-332,-351,-239v-163,87,-282,392,-208,638v24,80,99,150,202,149v82,0,156,-43,223,-128v89,-113,134,-253,134,-420"},"e":{"d":"525,-124v151,0,272,-109,323,-237r176,18v-50,173,-261,375,-500,367v-262,-9,-418,-180,-418,-450v-1,-241,132,-487,289,-580v86,-51,178,-80,277,-80v256,-2,421,177,417,440v0,52,-5,105,-14,160r-782,0v-27,197,65,362,232,362xm918,-624v16,-191,-76,-321,-242,-321v-190,0,-306,142,-354,321r596,0"},"f":{"d":"93,0r193,-922r-162,0r29,-140r162,0v40,-156,38,-337,163,-396v104,-49,209,-37,357,-4r-33,158v-94,-21,-175,-46,-234,2v-36,28,-56,168,-72,240r202,0r-29,140r-202,0r-193,922r-181,0","w":569},"g":{"d":"457,425v-239,1,-431,-86,-399,-329r183,17v-8,133,72,163,196,163v109,0,185,-31,236,-85v37,-39,83,-217,105,-334v-94,95,-194,143,-300,143v-234,0,-378,-193,-378,-454v0,-242,142,-461,289,-556v206,-133,454,-91,565,122r36,-174r166,0r-214,1025v-45,208,-97,329,-250,410v-67,36,-146,52,-235,52xm888,-654v10,-211,-194,-354,-380,-250v-156,87,-275,369,-203,598v28,90,102,158,209,158v238,0,362,-265,374,-506"},"h":{"d":"903,-819v-1,-75,-57,-119,-140,-118v-147,2,-271,88,-327,193v-88,168,-133,516,-187,744r-181,0r306,-1466r181,0r-117,563v112,-104,196,-177,367,-183v166,-6,278,95,278,253v0,37,-11,106,-32,206r-131,627r-181,0r135,-643v19,-93,29,-152,29,-176"},"i":{"d":"325,-1261r43,-205r180,0r-43,205r-180,0xm61,0r222,-1062r181,0r-222,1062r-181,0","w":455},"j":{"d":"325,-1261r43,-205r179,0r-43,205r-179,0xm-248,399r32,-154v81,21,155,31,202,-21v23,-26,47,-97,72,-214r223,-1072r181,0r-230,1105v-29,138,-62,232,-99,282v-84,113,-219,119,-381,74","w":455},"k":{"d":"70,0r307,-1466r180,0r-190,909r528,-505r239,0r-453,396r274,666r-198,0r-212,-545r-220,190r-74,355r-181,0","w":1024},"l":{"d":"54,0r306,-1466r181,0r-306,1466r-181,0","w":455},"m":{"d":"856,-821v1,-68,-49,-118,-117,-116v-127,3,-244,90,-299,185v-34,59,-64,142,-87,250r-105,502r-181,0r222,-1062r181,0r-37,175v113,-119,175,-193,353,-199v138,-5,228,81,253,199v91,-110,191,-195,359,-199v168,-4,265,80,266,240v0,33,-8,87,-23,162r-143,684r-181,0r146,-702v13,-57,19,-98,19,-123v-3,-144,-191,-128,-291,-63v-131,85,-171,176,-212,373r-108,515r-181,0r150,-717v11,-49,16,-83,16,-104","w":1706},"n":{"d":"901,-818v-1,-76,-58,-119,-142,-119v-93,0,-175,33,-247,100v-72,67,-126,181,-160,343r-103,494r-181,0r222,-1062r164,0r-39,185v118,-115,208,-202,390,-209v165,-6,277,98,276,257v0,39,-9,101,-26,186r-135,643r-181,0r141,-673v14,-65,21,-114,21,-145"},"o":{"d":"534,24v-262,0,-431,-161,-434,-427v-4,-360,213,-683,579,-683v258,0,430,181,427,444v-5,371,-215,666,-572,666xm927,-643v6,-175,-96,-303,-255,-303v-135,0,-215,71,-282,159v-64,84,-103,236,-109,366v-10,225,166,365,370,281v172,-71,268,-273,276,-503"},"p":{"d":"744,-1086v222,0,356,179,352,427v-5,310,-147,546,-352,644v-191,91,-371,27,-464,-155r-120,577r-181,0r307,-1469r167,0r-31,148v103,-102,164,-172,322,-172xm916,-658v0,-161,-83,-282,-225,-282v-115,0,-178,68,-237,146v-81,108,-153,361,-100,525v26,81,108,145,214,145v104,0,188,-59,252,-176v64,-117,96,-236,96,-358"},"q":{"d":"629,-1086v155,0,251,94,305,219r41,-195r156,0r-306,1469r-181,0r110,-527v-103,96,-202,144,-297,144v-218,0,-352,-185,-352,-432v0,-261,118,-496,275,-598v80,-53,164,-80,249,-80xm867,-659v5,-157,-90,-276,-231,-278v-63,0,-117,22,-166,62v-97,79,-183,273,-186,443v-4,181,75,308,227,308v230,0,348,-291,356,-535"},"r":{"d":"68,0r222,-1062r160,0r-45,217v55,-82,108,-144,161,-182v98,-71,177,-79,293,-20r-74,168v-112,-70,-202,-27,-298,72v-137,139,-186,550,-247,807r-172,0","w":682,"k":{".":76,"-":37,",":113}},"s":{"d":"951,-298v0,213,-195,323,-431,322v-247,-1,-453,-120,-435,-387r181,-11v-5,172,99,249,263,258v170,9,299,-117,204,-250v-32,-44,-322,-162,-364,-190v-76,-51,-135,-112,-135,-224v0,-186,167,-306,380,-306v246,0,404,118,413,336r-177,12v-6,-134,-102,-208,-249,-208v-144,0,-265,128,-153,224v20,17,72,44,155,80v139,60,226,107,262,142v57,55,86,123,86,202","w":1024},"t":{"d":"305,-201v0,88,122,68,186,54r-30,148v-150,42,-344,12,-346,-145v0,-23,9,-77,26,-161r129,-617r-143,0r29,-140r143,0r55,-261r207,-125r-81,386r178,0r-30,140r-177,0r-123,587v-15,75,-23,119,-23,134","w":569},"u":{"d":"311,-251v0,147,186,148,293,90v98,-53,171,-137,210,-249v59,-168,102,-455,147,-652r181,0r-222,1062r-167,0r40,-192v-127,144,-258,216,-391,216v-152,0,-274,-101,-274,-243v0,-45,11,-121,34,-230r128,-613r181,0r-142,679v-12,57,-18,101,-18,132"},"v":{"d":"336,0r-174,-1062r176,0r91,585v10,64,22,168,37,313v35,-75,79,-162,133,-259r355,-639r191,0r-608,1062r-201,0","w":1024,"k":{".":152,",":152}},"w":{"d":"270,0r-111,-1062r174,0r48,477r25,389v44,-149,56,-174,118,-312r253,-554r197,0r35,531v5,81,9,188,10,323v88,-232,275,-604,391,-854r181,0r-519,1062r-188,0r-40,-623v-3,-39,-5,-114,-6,-226v-27,71,-60,148,-97,231r-281,618r-190,0","w":1479,"k":{".":113,",":113}},"x":{"d":"-3,0r462,-539r-265,-523r200,0r90,189v33,71,63,138,90,203r306,-392r221,0r-446,537r268,525r-200,0r-106,-216v-23,-46,-48,-103,-77,-171r-316,387r-227,0","w":1024},"y":{"d":"0,410r11,-170v67,19,149,26,198,-9v51,-36,114,-156,154,-228r-177,-1065r178,0r80,537v16,106,30,212,41,318r475,-855r189,0r-677,1203v-65,117,-124,194,-174,233v-80,61,-192,73,-298,36","w":1024,"k":{".":152,",":152}},"z":{"d":"40,0r29,-140r571,-643v41,-45,86,-92,136,-141v-216,24,-362,9,-580,13r32,-151r821,0r-24,114r-576,647v-33,37,-81,87,-146,151v247,-17,387,-6,625,-9r-33,159r-855,0","w":1024},"{":{"d":"265,-284v0,-107,-54,-162,-158,-165r35,-163v118,-5,181,-68,227,-160v30,-61,98,-388,121,-454v63,-183,162,-281,422,-265r-34,157v-113,-2,-179,12,-211,86v-34,80,-100,412,-131,478v-58,122,-116,184,-245,240v92,43,140,108,141,239v11,51,-77,397,-77,469v0,96,53,95,174,96r-34,157v-196,10,-301,-30,-311,-206v-3,-51,81,-433,81,-509","w":684},"|":{"d":"188,431r0,-1922r157,0r0,1922r-157,0","w":532},"}":{"d":"475,-776v0,107,54,161,158,164r-35,163v-111,4,-181,67,-223,150v-33,65,-99,391,-123,461v-63,185,-162,285,-424,269r34,-157v119,2,180,-12,214,-92v27,-64,97,-399,119,-450v57,-130,125,-211,254,-262v-97,-54,-132,-101,-141,-241v-3,-52,75,-395,77,-468v1,-95,-67,-95,-174,-95r34,-157v196,-10,306,28,311,206v2,82,-91,471,-81,509","w":684},"~":{"d":"425,-693v-130,0,-168,53,-261,136r0,-205v94,-108,237,-140,404,-102v83,19,244,116,361,116v105,0,200,-73,258,-137r0,212v-76,70,-147,108,-277,114v-164,8,-329,-134,-485,-134","w":1196}}});
/*!
 * The following copyright notice may not be removed under any circumstances.
 * 
 * Copyright:
 * © 2008 The Monotype Corporation. All Rights Reserved.
 * 
 * Trademark:
 * Arial is a trademark of The Monotype Corporation in the United States and/or
 * other countries.
 * 
 * Manufacturer:
 * The Monotype Corporation
 * 
 * Designer:
 * Monotype Type Drawing Office - Robin Nicholas, Patricia Saunders 1982
 */
Cufon.registerFont({"w":1139,"face":{"font-family":"arial","font-weight":700,"font-style":"italic","font-stretch":"normal","units-per-em":"2048","panose-1":"2 11 7 4 2 2 2 9 2 4","ascent":"1638","descent":"-410","x-height":"25","bbox":"-224 -1577 2187 433.257","underline-thickness":"215","underline-position":"-110","slope":"-12","unicode-range":"U+0020-U+007E"},"glyphs":{" ":{"w":569,"k":{"Y":37,"A":76}},"\u00a0":{"w":569},"!":{"d":"418,-373r-158,0r90,-748r72,-345r301,0r-77,371xm184,-277r284,0r-58,277r-284,0","w":682},"\"":{"d":"310,-945r5,-273r53,-248r306,0r-53,248r-104,273r-207,0xm674,-945r5,-273r53,-248r306,0r-53,248r-104,273r-207,0","w":971},"#":{"d":"234,-365r-136,0r0,-220r180,0r60,-295r-240,0r0,-221r285,0r79,-390r224,0r-79,390r221,0r77,-390r232,0r-80,390r138,0r0,221r-183,0r-60,295r243,0r0,220r-288,0r-79,390r-223,0r77,-390r-222,0r-79,390r-226,0xm563,-880r-59,295r222,0r58,-295r-221,0"},"$":{"d":"1087,-434v6,266,-232,471,-518,461r-37,176r-143,0r40,-193v-190,-46,-326,-211,-339,-436r253,-13v13,115,57,189,133,224r92,-442v-176,-74,-306,-205,-306,-411v0,-255,208,-437,481,-423r18,-86r143,0r-22,103v169,41,281,167,298,359r-246,13v-12,-74,-44,-126,-97,-155r-83,398v199,80,328,193,333,425xm699,-1281v-107,-5,-198,82,-198,183v0,75,41,135,122,180xm615,-195v133,-7,236,-89,236,-215v0,-112,-53,-128,-152,-186"},"%":{"d":"463,-721v-167,0,-277,-118,-277,-290v0,-243,144,-480,391,-480v173,0,282,122,277,303v-7,246,-135,467,-391,467xm648,-1228v0,-93,-101,-118,-158,-58v-37,39,-93,221,-93,298v0,62,26,98,82,98v110,0,169,-211,169,-338xm485,63r-231,0r1222,-1554r230,0xm1379,60v-167,0,-277,-118,-277,-289v0,-243,144,-481,391,-481v173,0,282,122,277,303v-7,246,-134,467,-391,467xm1564,-446v0,-94,-101,-120,-158,-60v-37,39,-94,222,-94,299v0,63,26,98,83,98v110,0,169,-210,169,-337","w":1821},"&":{"d":"891,-1491v188,0,343,115,343,279v0,63,-27,132,-80,206v-53,74,-140,141,-261,202v51,85,156,251,224,329v34,-34,75,-88,122,-163r207,124v-35,69,-109,176,-162,224v38,41,87,86,146,136r-181,188v-49,-26,-136,-100,-175,-142v-93,74,-248,133,-416,133v-277,0,-488,-165,-488,-416v0,-164,89,-290,185,-370v39,-33,103,-73,192,-120v-43,-94,-65,-176,-65,-246v-1,-213,181,-364,409,-364xm886,-1304v-81,0,-140,65,-140,150v0,43,14,94,43,154v79,-40,132,-82,166,-121v61,-71,35,-183,-69,-183xm453,-418v0,123,90,210,216,210v79,0,161,-28,245,-83v-101,-123,-188,-252,-263,-388v-132,66,-198,153,-198,261","w":1479},"'":{"d":"310,-945r5,-273r53,-248r306,0r-53,248r-104,273r-207,0","w":487},"(":{"d":"443,-641v-86,375,-59,739,48,1072r-195,0v-140,-326,-229,-768,-96,-1155v105,-306,239,-505,474,-767r218,0v-228,270,-365,484,-449,850","w":682},")":{"d":"288,-418v86,-374,60,-740,-47,-1073r195,0v140,325,228,767,96,1153v-105,306,-240,508,-474,769r-218,0v227,-271,364,-482,448,-849","w":682},"*":{"d":"418,-792r-151,-117v60,-68,124,-130,189,-193v-16,-1,-227,-52,-255,-64r59,-176v87,35,165,74,234,117v-16,-109,-24,-197,-24,-266r178,0v0,49,-9,138,-27,268v13,-5,42,-18,86,-39v60,-27,115,-51,166,-70r53,181v-74,17,-160,33,-257,49r177,202r-153,101r-135,-223v-41,72,-87,149,-140,230","w":797},"+":{"d":"549,-211r0,-381r-384,0r0,-263r384,0r0,-381r256,0r0,381r385,0r0,263r-385,0r0,381r-256,0","w":1196},",":{"d":"146,-277r289,0v-38,178,-75,423,-179,509v-63,52,-139,84,-235,86r28,-133v103,-25,145,-76,170,-185r-132,0","w":569},"-":{"d":"137,-667r557,0r-58,277r-557,0","w":682},"\u00ad":{"d":"137,-667r557,0r-58,277r-557,0","w":682},".":{"d":"148,-277r284,0r-58,277r-284,0","w":569},"\/":{"d":"-89,25r726,-1516r200,0r-725,1516r-201,0","w":569},"0":{"d":"541,25v-261,0,-409,-209,-409,-502v0,-326,146,-711,311,-860v98,-88,203,-135,320,-135v262,0,407,209,407,504v0,311,-136,708,-309,860v-97,86,-201,133,-320,133xm890,-1035v0,-123,-38,-207,-137,-207v-51,0,-92,27,-135,73v-97,103,-204,541,-204,750v0,131,33,214,136,214v53,0,101,-25,142,-74v55,-66,104,-196,147,-390v34,-154,51,-276,51,-366"},"1":{"d":"243,-842r54,-256v247,-108,439,-234,574,-377r175,0r-309,1475r-289,0r213,-1016v-104,69,-284,145,-418,174","k":{"1":152}},"2":{"d":"737,-1247v-127,7,-168,96,-196,238r-281,-42v38,-250,200,-412,470,-421v320,-10,531,269,403,568v-67,157,-161,235,-311,376v-143,135,-169,153,-261,266r508,0r-54,262r-891,0v21,-158,100,-283,187,-387v52,-63,388,-377,458,-456v71,-80,116,-133,122,-238v6,-94,-64,-171,-154,-166"},"3":{"d":"1077,-459v0,265,-254,491,-520,484v-261,-7,-425,-165,-453,-408r275,-33v20,132,55,202,180,207v130,5,227,-103,227,-235v0,-133,-97,-215,-238,-191r50,-239v160,16,264,-67,264,-215v0,-91,-58,-157,-147,-153v-113,5,-158,84,-189,201r-262,-52v62,-226,222,-373,471,-379v249,-6,412,158,412,382v0,170,-113,293,-251,341v106,53,181,153,181,290"},"4":{"d":"633,-299r-577,0r50,-240r793,-927r248,0r-193,923r178,0r-51,244r-178,0r-63,299r-270,0xm684,-543r95,-457r-387,457r292,0"},"5":{"d":"1126,-580v-9,333,-231,600,-566,605v-253,4,-433,-186,-430,-445r279,-25v-11,137,45,234,163,234v159,0,269,-173,269,-367v0,-125,-59,-206,-172,-206v-94,0,-156,47,-210,105r-236,-18r223,-749r737,0r-54,262r-487,0r-67,226v49,-22,103,-37,167,-38v229,-2,390,176,384,416"},"6":{"d":"715,-978v235,-1,390,182,390,432v0,216,-127,428,-269,507v-143,80,-328,90,-464,3v-142,-91,-206,-247,-206,-495v0,-262,58,-484,174,-667v116,-183,269,-274,459,-274v237,0,355,137,380,364r-269,22v-9,-100,-40,-157,-132,-157v-49,0,-92,19,-130,58v-54,55,-97,145,-130,268v62,-41,128,-61,197,-61xm672,-788v-159,0,-227,186,-230,357v-2,132,51,226,160,226v56,0,104,-26,144,-78v54,-70,81,-164,81,-282v0,-129,-50,-223,-155,-223"},"7":{"d":"212,-1181r55,-265r967,0r-43,204v-304,260,-562,799,-666,1242r-273,0v98,-447,316,-875,587,-1181r-627,0"},"8":{"d":"135,-380v2,-211,134,-373,305,-427v-89,-59,-154,-136,-154,-265v0,-241,198,-400,459,-400v241,0,416,138,416,360v0,175,-107,265,-248,327v107,65,179,158,179,313v0,281,-244,498,-527,498v-247,0,-432,-167,-430,-406xm741,-1253v-105,0,-192,93,-192,200v0,90,62,154,151,154v100,0,194,-95,194,-195v0,-91,-64,-159,-153,-159xm650,-679v-135,3,-229,145,-229,304v0,104,63,176,162,176v149,0,232,-167,232,-311v0,-96,-70,-171,-165,-169"},"9":{"d":"719,-1472v294,6,424,243,424,556v0,263,-59,486,-175,668v-116,182,-269,273,-459,273v-228,1,-366,-143,-379,-363r269,-22v9,99,40,156,132,156v49,0,92,-19,129,-57v55,-55,98,-145,130,-268v-62,40,-127,60,-196,60v-235,1,-390,-181,-390,-431v0,-292,212,-579,515,-572xm637,-658v159,0,227,-187,230,-358v2,-132,-51,-225,-160,-225v-56,0,-104,26,-144,78v-54,70,-81,164,-81,282v0,129,50,223,155,223"},":":{"d":"366,-1062r283,0r-58,278r-283,0xm202,-277r284,0r-58,277r-284,0","w":682},";":{"d":"371,-1062r284,0r-58,278r-284,0xm208,-277r289,0v-38,178,-75,423,-179,509v-63,52,-139,84,-235,86r28,-133v103,-25,145,-76,170,-185r-132,0","w":682},"\u037e":{"d":"371,-1062r284,0r-58,278r-284,0xm208,-277r289,0v-38,178,-75,423,-179,509v-63,52,-139,84,-235,86r28,-133v103,-25,145,-76,170,-185r-132,0","w":682},"<":{"d":"1180,-167r-1005,-437r0,-242r1005,-435r0,285r-701,268r701,278r0,283","w":1196},"=":{"d":"165,-816r0,-258r1025,0r0,258r-1025,0xm165,-372r0,-259r1025,0r0,259r-1025,0","w":1196},">":{"d":"175,-166r0,-283r702,-276r-702,-273r0,-281r1006,435r0,240","w":1196},"?":{"d":"804,-1491v324,0,572,260,410,543v-34,59,-130,152,-285,281v-97,81,-157,138,-180,170v-23,32,-39,76,-49,131r-258,0v13,-89,42,-166,84,-232v42,-66,127,-154,254,-264v108,-94,171,-156,190,-186v78,-121,-18,-240,-171,-232v-172,9,-249,98,-284,256r-263,-46v60,-243,259,-421,552,-421xm412,-277r284,0r-58,277r-284,0","w":1251},"@":{"d":"1161,247v318,0,548,-88,688,-266r213,0v-140,288,-460,450,-885,450v-439,0,-773,-154,-927,-441v-163,-303,-148,-696,16,-996v163,-298,462,-486,892,-486v502,0,851,286,851,771v0,170,-52,324,-157,461v-131,173,-300,260,-505,260v-106,0,-159,-35,-181,-114v-79,76,-169,114,-272,114v-227,2,-385,-180,-385,-419v0,-323,237,-665,542,-665v119,0,206,45,263,136r25,-111r264,0r-151,717v-9,45,-14,75,-14,88v-1,29,14,49,39,50v32,0,73,-20,124,-58v122,-89,228,-271,228,-469v0,-352,-287,-577,-675,-577v-372,0,-622,165,-744,422v-64,134,-95,272,-95,417v0,472,349,716,846,716xm1074,-904v-212,0,-294,263,-306,474v-11,190,130,300,286,219v125,-65,199,-276,205,-459v4,-135,-66,-234,-185,-234","w":1997},"A":{"d":"1044,-324r-581,0r-176,324r-310,0r829,-1466r335,0r238,1466r-286,0xm1007,-568r-85,-590r-354,590r439,0","w":1479,"k":{"Y":152,"W":113,"V":152,"T":152," ":76}},"B":{"d":"1176,-763v133,33,240,140,240,290v0,195,-126,364,-282,421v-89,33,-208,52,-361,52r-691,0r307,-1466r501,0v212,0,292,5,411,70v92,51,153,152,153,286v0,190,-113,295,-278,347xm566,-874v258,-11,589,58,589,-201v0,-81,-51,-128,-123,-140v-75,-12,-286,-5,-393,-6xm1107,-451v0,-118,-91,-168,-234,-168r-360,0r-80,383v159,-3,440,10,537,-24v73,-26,137,-101,137,-191","w":1479},"C":{"d":"786,-227v187,0,310,-133,360,-301r304,46v-103,294,-324,508,-684,508v-373,0,-572,-241,-572,-632v0,-347,160,-637,383,-775v229,-142,586,-152,777,17v97,86,156,201,173,348r-289,28v-29,-156,-106,-243,-275,-243v-316,0,-462,319,-472,636v-6,210,109,368,295,368","w":1479},"D":{"d":"89,0r307,-1466r395,0v206,0,249,-6,373,42v207,79,318,277,320,566v3,318,-139,576,-318,712v-140,106,-281,146,-560,146r-517,0xm440,-236v125,0,322,3,394,-20v142,-45,220,-156,286,-293v67,-138,93,-428,10,-553v-70,-106,-122,-123,-309,-122r-175,0","w":1479},"E":{"d":"84,0r306,-1466r1087,0r-51,245r-785,0r-70,333r759,0r-51,245r-759,0r-92,398r853,0r-52,245r-1145,0","w":1366},"F":{"d":"80,0r307,-1466r1026,0r-52,245r-724,0r-74,352r710,0r-51,245r-710,0r-130,624r-302,0","w":1251,"k":{"A":113,".":227,",":227}},"G":{"d":"473,-589v-2,237,104,360,330,362v133,1,285,-46,375,-93r45,-218r-374,0r51,-245r656,0r-132,629v-146,94,-391,179,-628,179v-406,0,-615,-232,-615,-610v0,-339,168,-629,375,-776v222,-158,640,-176,850,-12v102,79,170,193,203,344r-281,32v-45,-152,-144,-250,-327,-250v-353,0,-524,297,-528,658","w":1593},"H":{"d":"1095,-655r-567,0r-137,655r-302,0r307,-1466r301,0r-118,566r567,0r119,-566r301,0r-306,1466r-302,0","w":1479},"I":{"d":"71,0r307,-1466r301,0r-306,1466r-302,0","w":569},"J":{"d":"343,-444v-25,134,23,217,157,217v77,0,132,-23,163,-68v23,-35,52,-132,85,-293r184,-878r296,0r-185,888v-49,235,-114,395,-194,478v-80,83,-203,125,-369,125v-288,0,-451,-151,-416,-439"},"K":{"d":"81,0r306,-1466r302,0r-130,623r678,-623r404,0r-658,575r483,891r-341,0r-362,-698r-285,249r-94,449r-303,0","w":1479},"L":{"d":"92,0r307,-1466r301,0r-255,1221r746,0r-51,245r-1048,0","w":1251,"k":{"Y":152,"W":113,"V":113,"T":152," ":37}},"M":{"d":"927,0r-286,0r-53,-1225r-233,1225r-272,0r306,-1466r430,0r45,1027r500,-1027r435,0r-307,1466r-275,0r289,-1216","w":1706},"N":{"d":"1256,0r-281,0r-396,-985r-206,985r-281,0r306,-1466r282,0r397,981r205,-981r280,0","w":1479},"O":{"d":"999,-1491v360,0,611,253,607,617v-4,335,-184,645,-405,783v-212,132,-555,158,-767,24v-224,-142,-306,-459,-216,-782v71,-255,206,-449,419,-559v106,-55,227,-83,362,-83xm1305,-869v0,-215,-129,-370,-330,-370v-147,0,-267,69,-359,206v-92,137,-139,288,-139,452v0,196,137,362,334,355v209,-8,343,-146,421,-324v48,-109,73,-216,73,-319","w":1593},"P":{"d":"385,0r-302,0r307,-1466r596,0v205,1,320,40,398,162v118,182,17,488,-94,590v-147,135,-283,156,-595,155r-193,0xm552,-802v147,2,360,-9,412,-30v93,-38,170,-124,172,-241v0,-73,-36,-117,-90,-137v-65,-23,-291,-13,-405,-15","w":1366,"k":{"A":152,".":264,",":264," ":76}},"Q":{"d":"1605,-874v-3,307,-147,585,-329,728v64,63,131,114,202,154r-142,187v-93,-45,-179,-120,-258,-224v-87,34,-185,54,-300,55v-353,4,-599,-252,-599,-605v0,-147,35,-296,103,-447v121,-270,360,-460,717,-465v361,-4,610,252,606,617xm923,-248v-28,-46,-112,-106,-164,-122r110,-168v90,45,168,106,234,183v107,-102,199,-321,202,-513v4,-216,-128,-371,-330,-371v-157,0,-256,79,-337,177v-86,102,-160,287,-160,467v0,250,186,417,442,356v2,-2,3,-5,3,-9","w":1593},"R":{"d":"1518,-1082v0,277,-178,428,-451,459v39,35,75,80,109,137v67,115,142,277,225,486r-324,0v-26,-83,-77,-212,-153,-387v-41,-95,-86,-157,-132,-191v-45,-34,-180,-29,-273,-29r-127,607r-302,0r307,-1466r651,0v218,2,329,31,412,161v39,61,58,136,58,223xm1217,-1077v0,-118,-74,-144,-238,-144r-332,0r-82,394v153,1,421,-4,483,-29v89,-35,169,-115,169,-221","w":1479,"k":{"Y":37,"W":37,"T":37}},"S":{"d":"1287,-444v0,285,-256,476,-581,469v-346,-7,-587,-152,-576,-500r287,-15v7,215,81,255,291,263v164,6,280,-53,280,-181v0,-43,-19,-79,-54,-110v-54,-48,-393,-185,-458,-230v-94,-66,-168,-163,-168,-314v0,-271,217,-429,522,-429v323,0,533,161,555,443r-289,13v-16,-144,-103,-217,-268,-217v-140,0,-232,43,-232,155v0,42,16,77,49,104v33,28,105,66,217,115v169,73,276,132,322,177v69,67,103,152,103,257","w":1366},"T":{"d":"722,0r-302,0r256,-1221r-430,0r51,-245r1155,0r-51,245r-424,0","w":1251,"k":{"y":76,"w":76,"u":37,"s":76,"r":37,"o":76,"i":37,"e":76,"c":76,"a":76,"O":37,"A":152,";":152,":":152,".":152,"-":113,",":152}},"U":{"d":"715,25v-342,0,-567,-195,-521,-537v3,-21,14,-82,35,-182r162,-772r301,0r-207,992v-25,160,84,249,244,247v151,-2,239,-59,290,-163v26,-54,52,-146,79,-275r168,-801r301,0r-167,802v-70,310,-116,471,-331,605v-92,58,-211,84,-354,84","w":1479},"V":{"d":"817,0r-322,0r-263,-1466r301,0r186,1109r607,-1109r299,0","w":1366,"k":{"y":37,"u":37,"r":37,"o":76,"i":76,"e":76,"a":76,"A":152,";":76,":":76,".":188,"-":76,",":188}},"W":{"d":"1478,0r-305,0r-33,-1072r-534,1072r-311,0r-55,-1466r295,0r13,1026r503,-1026r327,0r34,1015r483,-1015r292,0","w":1933,"k":{"y":37,"u":37,"r":37,"o":37,"i":18,"e":37,"a":37,"A":113,";":76,":":76,".":152,"-":76,",":152}},"X":{"d":"328,0r-390,0r647,-742r-364,-724r315,0r143,275r111,230r205,-244r231,-261r379,0r-671,772r361,694r-340,0r-110,-221v-57,-117,-95,-200,-114,-251v-57,86,-297,352,-403,472","w":1366},"Y":{"d":"821,0r-301,0r119,-571r-404,-895r321,0r182,414v43,99,72,171,87,215v63,-112,151,-226,225,-332r207,-297r350,0r-672,923","w":1366,"k":{"v":76,"u":76,"q":76,"p":76,"o":76,"i":76,"e":76,"a":76,"A":152,";":113,":":113,".":188,"-":152,",":188," ":37}},"Z":{"d":"51,0r48,-231r844,-990r-683,0r51,-245r1057,0r-44,230r-853,996r422,-5r346,0r-51,245r-1137,0","w":1251},"[":{"d":"554,190r-45,214r-489,0r391,-1870r488,0r-46,223r-219,0r-299,1433r219,0","w":682},"\\":{"d":"387,25r-227,-1516r201,0r227,1516r-201,0","w":569},"]":{"d":"232,-1252r45,-214r491,0r-391,1870r-491,0r47,-224r221,0r299,-1432r-221,0","w":682},"^":{"d":"215,-692r376,-799r223,0r366,799r-284,0r-198,-489r-197,489r-286,0","w":1196},"_":{"d":"-19,405r0,-182r1168,0r0,182r-1168,0"},"`":{"d":"274,-1499r276,0r128,299r-194,0","w":682},"a":{"d":"669,-882v-102,0,-160,43,-182,121r-280,-24v66,-190,224,-302,484,-302v137,0,238,28,303,83v65,55,98,122,98,201v0,139,-110,493,-110,652v0,45,8,96,24,151r-279,0v-11,-39,-18,-79,-21,-120v-70,80,-178,142,-310,145v-174,3,-310,-133,-304,-309v9,-248,155,-332,432,-353v137,-11,228,-25,274,-41v47,-119,-1,-204,-129,-204xm362,-309v0,69,58,123,131,119v181,-9,240,-128,267,-305v-17,5,-40,9,-69,13v-144,17,-238,43,-282,76v-31,24,-47,56,-47,97"},"b":{"d":"862,-1087v241,0,373,177,370,440v-4,296,-139,538,-342,631v-205,93,-428,28,-518,-159r-37,175r-261,0r306,-1466r288,0r-103,490v92,-68,161,-111,297,-111xm954,-640v4,-136,-79,-242,-200,-242v-72,0,-134,33,-186,100v-71,91,-107,208,-107,349v0,129,86,241,203,241v200,0,282,-239,290,-448","w":1251},"c":{"d":"569,-200v118,0,197,-91,233,-200r279,45v-79,220,-247,376,-517,380v-272,4,-445,-178,-441,-454v4,-377,234,-651,607,-658v242,-5,408,140,426,356r-273,29v-11,-108,-64,-173,-171,-173v-215,0,-297,261,-304,479v-3,113,60,196,161,196"},"d":{"d":"491,25v-240,0,-370,-178,-370,-445v0,-170,48,-324,144,-461v96,-137,223,-206,381,-206v143,0,250,57,321,170r115,-549r287,0r-306,1466r-272,0r24,-115v-92,86,-169,140,-324,140xm688,-875v-178,-4,-288,254,-288,443v0,137,77,242,199,242v200,0,286,-227,294,-428v6,-136,-86,-255,-205,-257","w":1251},"e":{"d":"711,-1087v267,-1,425,181,425,458v0,69,-7,132,-20,187r-720,0v-14,149,78,262,207,262v95,0,170,-49,223,-148r257,43v-86,183,-242,306,-482,310v-285,5,-482,-205,-482,-494v0,-145,40,-275,121,-388v110,-153,267,-230,471,-230xm874,-617v11,-158,-55,-265,-194,-265v-144,0,-231,119,-255,265r449,0"},"f":{"d":"822,-1062r-44,210r-203,0r-178,852r-287,0r178,-852r-160,0r44,-210r160,0v18,-88,52,-247,76,-290v50,-87,137,-140,278,-139v88,0,181,16,278,48r-56,205v-69,-23,-124,-35,-167,-35v-84,0,-84,39,-106,136r-16,75r203,0","w":682,"k":{"f":37}},"g":{"d":"519,431v-291,0,-474,-88,-452,-375r303,44v0,98,58,126,155,126v116,0,176,-39,213,-126v10,-24,37,-147,51,-220v-99,83,-202,124,-308,124v-228,0,-359,-177,-356,-432v4,-355,180,-659,510,-659v159,0,276,94,331,213r40,-188r269,0r-184,885v-51,224,-61,322,-147,449v-77,114,-231,159,-425,159xm887,-631v4,-134,-85,-251,-202,-251v-138,0,-200,117,-248,249v-67,183,-30,424,159,424v192,0,285,-221,291,-422","w":1251},"h":{"d":"919,-765v1,-71,-50,-119,-123,-117v-130,4,-228,115,-269,212v-57,135,-112,484,-154,670r-287,0r307,-1466r287,0r-110,522v112,-85,196,-139,361,-143v166,-4,280,106,279,268v0,43,-9,109,-28,198r-130,621r-287,0r133,-633v14,-69,21,-113,21,-132","w":1251},"i":{"d":"388,-1466r287,0r-54,260r-287,0xm304,-1062r287,0r-222,1062r-287,0","w":569},"j":{"d":"390,-1466r288,0r-54,260r-288,0xm306,-1062r288,0r-189,899v-53,257,-99,412,-137,467v-58,84,-149,127,-276,127v-79,0,-151,-11,-216,-32r45,-237v91,21,160,33,209,-28v23,-30,54,-135,92,-316","w":569},"k":{"d":"77,0r307,-1466r287,0r-160,763r374,-359r373,0r-427,386r227,676r-287,0r-146,-491r-194,172r-67,319r-287,0"},"l":{"d":"80,0r307,-1466r286,0r-306,1466r-287,0","w":569},"m":{"d":"857,-786v1,-100,-125,-118,-204,-68v-73,46,-119,109,-152,203v-8,24,-21,78,-39,163r-102,488r-287,0r222,-1062r270,0r-27,129v105,-103,216,-154,332,-154v154,0,242,66,268,188v64,-97,216,-188,372,-188v161,0,269,94,269,248v0,37,-9,100,-28,190r-136,649r-287,0r136,-649v17,-81,25,-127,25,-138v0,-62,-40,-95,-106,-95v-71,0,-135,38,-191,113v-41,54,-75,150,-104,287r-101,482r-287,0r134,-642v15,-74,23,-122,23,-144","w":1821},"n":{"d":"920,-764v0,-74,-48,-121,-123,-118v-108,4,-220,101,-261,193v-64,146,-117,491,-163,689r-287,0r222,-1062r272,0r-28,138v116,-97,203,-158,377,-163v170,-5,283,108,282,274v0,37,-11,108,-33,212r-125,601r-287,0r126,-603v19,-90,28,-144,28,-161","w":1251},"o":{"d":"620,25v-299,-6,-491,-176,-496,-466v-7,-378,237,-646,604,-646v304,0,499,182,499,478v0,342,-251,641,-607,634xm412,-445v-6,141,87,248,218,248v79,0,145,-34,198,-101v76,-95,114,-211,114,-348v0,-131,-86,-226,-213,-225v-214,1,-309,222,-317,426","w":1251},"p":{"d":"1240,-629v0,324,-218,654,-530,654v-141,0,-247,-57,-319,-171r-115,551r-287,0r306,-1467r272,0r-23,109v100,-80,175,-134,326,-134v246,0,370,183,370,458xm759,-882v-200,0,-282,237,-291,429v-7,145,79,261,203,261v198,0,282,-247,290,-444v6,-144,-73,-246,-202,-246","w":1251},"q":{"d":"122,-417v8,-347,186,-670,526,-670v153,0,264,64,333,192r35,-167r264,0r-306,1467r-287,0r103,-495v-90,71,-155,115,-295,115v-243,0,-379,-177,-373,-442xm689,-875v-196,0,-284,249,-290,453v-4,130,81,233,198,233v200,0,287,-231,294,-432v6,-140,-82,-254,-202,-254","w":1251},"r":{"d":"288,-1062r268,0r-43,206v100,-154,208,-231,325,-231v41,0,86,10,133,31r-110,235v-164,-55,-299,72,-353,191v-61,135,-113,441,-155,630r-287,0","w":797,"k":{".":113,",":113}},"s":{"d":"1056,-348v0,228,-217,373,-485,373v-294,0,-459,-108,-526,-322r278,-44v47,108,100,159,242,161v95,1,190,-34,198,-117v-11,-74,-47,-73,-140,-106v-172,-61,-280,-104,-322,-136v-131,-101,-124,-309,-3,-421v89,-83,217,-127,389,-127v252,0,397,91,443,278r-265,46v-29,-86,-114,-125,-222,-126v-96,-2,-169,28,-169,99v0,27,13,49,40,66v17,11,70,29,161,56v140,41,234,81,281,120v67,55,100,122,100,200"},"t":{"d":"457,25v-181,2,-290,-62,-290,-221v0,-163,92,-474,126,-653r-139,0r44,-213r140,0r35,-170r329,-198r-77,368r175,0r-44,213r-176,0r-93,445v-17,81,-25,127,-25,138v2,53,34,70,97,70v13,0,44,-2,95,-7r-45,213v-49,10,-100,15,-152,15","w":682},"u":{"d":"425,25v-171,0,-282,-108,-281,-276v0,-37,11,-110,34,-219r124,-592r287,0r-131,629v-16,75,-24,122,-24,141v-2,91,107,140,196,98v141,-67,205,-171,245,-362r106,-506r287,0r-222,1062r-268,0r30,-144v-117,113,-245,169,-383,169","w":1251},"v":{"d":"613,0r-247,0r-213,-1062r282,0r75,463v21,125,33,209,37,250v4,-11,139,-255,145,-265r264,-448r310,0","k":{".":113,",":113}},"w":{"d":"1192,0r-270,0r-52,-676r-324,676r-266,0r-133,-1062r255,0r74,712r331,-712r261,0r36,712r329,-712r288,0","w":1593,"k":{".":76,",":76}},"x":{"d":"571,-298r-264,298r-352,0r491,-544r-270,-518r305,0r155,303r269,-303r349,0r-493,551r268,511r-305,0"},"y":{"d":"171,-1062r286,0r72,529v18,136,28,231,30,286v97,-278,275,-557,408,-815r304,0r-656,1166v-93,157,-110,226,-239,294v-104,55,-233,38,-363,1r25,-214v168,46,238,-14,318,-185","k":{".":76,",":76}},"z":{"d":"34,0r41,-194r582,-644r-475,0r47,-224r833,0r-35,171r-587,659r511,0r-49,232r-868,0","w":1024},"{":{"d":"256,-239v-5,-123,-48,-164,-170,-171r52,-240v150,-2,208,-80,252,-189v37,-92,89,-380,126,-447v87,-160,225,-212,488,-205r-51,239v-210,5,-203,20,-251,206v-64,249,-60,286,-160,412v-30,38,-79,71,-138,104v77,52,115,115,115,240v0,136,-62,326,-62,398v0,40,24,64,57,74v19,6,60,9,125,9r-52,240v-234,5,-392,-19,-401,-231v-3,-65,72,-379,70,-439","w":797},"|":{"d":"176,431r0,-1922r223,0r0,1922r-223,0","w":573},"}":{"d":"573,-822v5,123,48,165,171,172r-52,240v-127,7,-177,50,-229,140v-48,83,-102,410,-148,495v-87,161,-227,213,-489,206r52,-240v203,-6,205,-22,251,-205v65,-255,57,-279,161,-412v34,-43,81,-76,136,-104v-82,-64,-116,-106,-116,-240v0,-142,62,-321,62,-404v0,-41,-20,-60,-54,-70v-19,-6,-61,-8,-128,-8r52,-239v233,-5,391,18,401,229v3,66,-72,379,-70,440","w":797},"~":{"d":"1199,-654v-77,77,-238,167,-395,121v-80,-23,-310,-125,-394,-125v-93,0,-184,46,-273,139r0,-259v81,-82,152,-131,300,-138v163,-7,322,133,488,133v95,0,187,-47,274,-141r0,270","w":1196}}});
